<?xml version="1.0"?>
<opencv_storage>
<cascade>
  <stageType>BOOST</stageType>
  <featureType>HAAR</featureType>
  <height>40</height>
  <width>30</width>
  <stageParams>
    <boostType>GAB</boostType>
    <minHitRate>9.9500000476837158e-01</minHitRate>
    <maxFalseAlarm>5.0000000000000000e-01</maxFalseAlarm>
    <weightTrimRate>9.4999998807907104e-01</weightTrimRate>
    <maxDepth>1</maxDepth>
    <maxWeakCount>100</maxWeakCount></stageParams>
  <featureParams>
    <maxCatCount>0</maxCatCount>
    <featSize>1</featSize>
    <mode>BASIC</mode></featureParams>
  <stageNum>14</stageNum>
  <stages>
    <!-- stage 0 -->
    <_>
      <maxWeakCount>4</maxWeakCount>
      <stageThreshold>-1.9484100341796875e+00</stageThreshold>
      <weakClassifiers>
        <_>
          <internalNodes>
            0 -1 24 -8.6992964148521423e-02</internalNodes>
          <leafValues>
            7.2254335880279541e-01 -9.1687041521072388e-01</leafValues></_>
        <_>
          <internalNodes>
            0 -1 73 -1.9782187417149544e-02</internalNodes>
          <leafValues>
            5.5657160282135010e-01 -8.4950798749923706e-01</leafValues></_>
        <_>
          <internalNodes>
            0 -1 15 -2.6957772672176361e-02</internalNodes>
          <leafValues>
            6.8209058046340942e-01 -7.8720927238464355e-01</leafValues></_>
        <_>
          <internalNodes>
            0 -1 49 -9.3555413186550140e-03</internalNodes>
          <leafValues>
            6.0517764091491699e-01 -6.6333878040313721e-01</leafValues></_></weakClassifiers></_>
    <!-- stage 1 -->
    <_>
      <maxWeakCount>4</maxWeakCount>
      <stageThreshold>-1.7694512605667114e+00</stageThreshold>
      <weakClassifiers>
        <_>
          <internalNodes>
            0 -1 24 -8.3375111222267151e-02</internalNodes>
          <leafValues>
            3.1304347515106201e-01 -9.1623932123184204e-01</leafValues></_>
        <_>
          <internalNodes>
            0 -1 43 -1.5554308891296387e-02</internalNodes>
          <leafValues>
            6.8974208831787109e-01 -7.3490625619888306e-01</leafValues></_>
        <_>
          <internalNodes>
            0 -1 69 -6.7752271890640259e-02</internalNodes>
          <leafValues>
            6.7286884784698486e-01 -6.2459057569503784e-01</leafValues></_>
        <_>
          <internalNodes>
            0 -1 8 -3.4370736102573574e-04</internalNodes>
          <leafValues>
            5.0628495216369629e-01 -7.5592863559722900e-01</leafValues></_></weakClassifiers></_>
    <!-- stage 2 -->
    <_>
      <maxWeakCount>4</maxWeakCount>
      <stageThreshold>-1.9330016374588013e+00</stageThreshold>
      <weakClassifiers>
        <_>
          <internalNodes>
            0 -1 20 -8.1225849688053131e-02</internalNodes>
          <leafValues>
            3.3606556057929993e-01 -9.3598616123199463e-01</leafValues></_>
        <_>
          <internalNodes>
            0 -1 16 -4.9169972538948059e-02</internalNodes>
          <leafValues>
            1.8691630661487579e-01 -9.0685933828353882e-01</leafValues></_>
        <_>
          <internalNodes>
            0 -1 67 -9.2715695500373840e-03</internalNodes>
          <leafValues>
            4.6690541505813599e-01 -7.0551884174346924e-01</leafValues></_>
        <_>
          <internalNodes>
            0 -1 37 -1.6832962632179260e-02</internalNodes>
          <leafValues>
            6.8219822645187378e-01 -4.7841289639472961e-01</leafValues></_></weakClassifiers></_>
    <!-- stage 3 -->
    <_>
      <maxWeakCount>5</maxWeakCount>
      <stageThreshold>-1.8069729804992676e+00</stageThreshold>
      <weakClassifiers>
        <_>
          <internalNodes>
            0 -1 6 -1.8540716171264648e-01</internalNodes>
          <leafValues>
            3.3018869161605835e-01 -9.0067338943481445e-01</leafValues></_>
        <_>
          <internalNodes>
            0 -1 56 2.1715201437473297e-02</internalNodes>
          <leafValues>
            -8.9131850004196167e-01 1.3742412626743317e-01</leafValues></_>
        <_>
          <internalNodes>
            0 -1 2 -1.1256217956542969e-02</internalNodes>
          <leafValues>
            3.1682035326957703e-01 -7.4534356594085693e-01</leafValues></_>
        <_>
          <internalNodes>
            0 -1 21 -2.7861645445227623e-02</internalNodes>
          <leafValues>
            3.1271493434906006e-01 -7.9110234975814819e-01</leafValues></_>
        <_>
          <internalNodes>
            0 -1 3 1.3622088357806206e-02</internalNodes>
          <leafValues>
            -5.6944167613983154e-01 4.7737872600555420e-01</leafValues></_></weakClassifiers></_>
    <!-- stage 4 -->
    <_>
      <maxWeakCount>7</maxWeakCount>
      <stageThreshold>-2.4217252731323242e+00</stageThreshold>
      <weakClassifiers>
        <_>
          <internalNodes>
            0 -1 50 1.1695486307144165e-01</internalNodes>
          <leafValues>
            -8.3045524358749390e-01 4.6031746268272400e-01</leafValues></_>
        <_>
          <internalNodes>
            0 -1 54 -1.3615009188652039e-01</internalNodes>
          <leafValues>
            5.6472218036651611e-01 -6.7145735025405884e-01</leafValues></_>
        <_>
          <internalNodes>
            0 -1 1 -1.3645434379577637e-01</internalNodes>
          <leafValues>
            5.9594762325286865e-01 -5.2610850334167480e-01</leafValues></_>
        <_>
          <internalNodes>
            0 -1 27 -1.7007967457175255e-02</internalNodes>
          <leafValues>
            4.7313976287841797e-01 -6.1621457338333130e-01</leafValues></_>
        <_>
          <internalNodes>
            0 -1 45 -1.2240245268912986e-05</internalNodes>
          <leafValues>
            3.0754274129867554e-01 -8.5337078571319580e-01</leafValues></_>
        <_>
          <internalNodes>
            0 -1 17 -3.7892825901508331e-02</internalNodes>
          <leafValues>
            6.2539732456207275e-01 -4.1274389624595642e-01</leafValues></_>
        <_>
          <internalNodes>
            0 -1 81 6.8950280547142029e-04</internalNodes>
          <leafValues>
            3.2771158218383789e-01 -8.4703379869461060e-01</leafValues></_></weakClassifiers></_>
    <!-- stage 5 -->
    <_>
      <maxWeakCount>5</maxWeakCount>
      <stageThreshold>-1.3852694034576416e+00</stageThreshold>
      <weakClassifiers>
        <_>
          <internalNodes>
            0 -1 61 -1.9066412001848221e-02</internalNodes>
          <leafValues>
            2.8467154502868652e-01 -8.2264447212219238e-01</leafValues></_>
        <_>
          <internalNodes>
            0 -1 25 -9.8466858267784119e-02</internalNodes>
          <leafValues>
            4.4615769386291504e-01 -6.6869896650314331e-01</leafValues></_>
        <_>
          <internalNodes>
            0 -1 72 -3.8410913199186325e-02</internalNodes>
          <leafValues>
            4.3523794412612915e-01 -5.7965874671936035e-01</leafValues></_>
        <_>
          <internalNodes>
            0 -1 33 -1.0096671991050243e-02</internalNodes>
          <leafValues>
            5.2856051921844482e-01 -5.6546437740325928e-01</leafValues></_>
        <_>
          <internalNodes>
            0 -1 82 3.6294944584369659e-03</internalNodes>
          <leafValues>
            2.3630046844482422e-01 -9.6459215879440308e-01</leafValues></_></weakClassifiers></_>
    <!-- stage 6 -->
    <_>
      <maxWeakCount>6</maxWeakCount>
      <stageThreshold>-1.7858786582946777e+00</stageThreshold>
      <weakClassifiers>
        <_>
          <internalNodes>
            0 -1 55 3.5093005746603012e-02</internalNodes>
          <leafValues>
            -7.7943366765975952e-01 7.9310345649719238e-01</leafValues></_>
        <_>
          <internalNodes>
            0 -1 57 -8.4693748503923416e-03</internalNodes>
          <leafValues>
            1.8818117678165436e-01 -8.1598174571990967e-01</leafValues></_>
        <_>
          <internalNodes>
            0 -1 13 -2.5513436645269394e-02</internalNodes>
          <leafValues>
            4.4673979282379150e-01 -5.7146531343460083e-01</leafValues></_>
        <_>
          <internalNodes>
            0 -1 39 -1.2207694351673126e-02</internalNodes>
          <leafValues>
            6.4054936170578003e-01 -4.2575958371162415e-01</leafValues></_>
        <_>
          <internalNodes>
            0 -1 62 -1.2551663443446159e-02</internalNodes>
          <leafValues>
            6.6862714290618896e-01 -4.1880542039871216e-01</leafValues></_>
        <_>
          <internalNodes>
            0 -1 53 2.7196761220693588e-04</internalNodes>
          <leafValues>
            3.5933315753936768e-01 -8.5894697904586792e-01</leafValues></_></weakClassifiers></_>
    <!-- stage 7 -->
    <_>
      <maxWeakCount>6</maxWeakCount>
      <stageThreshold>-1.6555720567703247e+00</stageThreshold>
      <weakClassifiers>
        <_>
          <internalNodes>
            0 -1 68 5.2986154332756996e-03</internalNodes>
          <leafValues>
            -8.2324057817459106e-01 3.3707864582538605e-02</leafValues></_>
        <_>
          <internalNodes>
            0 -1 74 -4.2902925051748753e-03</internalNodes>
          <leafValues>
            2.6795047521591187e-01 -7.3035228252410889e-01</leafValues></_>
        <_>
          <internalNodes>
            0 -1 28 -2.0404219627380371e-02</internalNodes>
          <leafValues>
            3.6376699805259705e-01 -6.3292050361633301e-01</leafValues></_>
        <_>
          <internalNodes>
            0 -1 71 -5.1617510616779327e-02</internalNodes>
          <leafValues>
            5.1380908489227295e-01 -4.8722901940345764e-01</leafValues></_>
        <_>
          <internalNodes>
            0 -1 51 -2.0944869145750999e-02</internalNodes>
          <leafValues>
            7.8186547756195068e-01 -2.7599346637725830e-01</leafValues></_>
        <_>
          <internalNodes>
            0 -1 41 3.9960362482815981e-04</internalNodes>
          <leafValues>
            2.9586103558540344e-01 -8.8264095783233643e-01</leafValues></_></weakClassifiers></_>
    <!-- stage 8 -->
    <_>
      <maxWeakCount>6</maxWeakCount>
      <stageThreshold>-2.1191096305847168e+00</stageThreshold>
      <weakClassifiers>
        <_>
          <internalNodes>
            0 -1 22 -4.6078354120254517e-02</internalNodes>
          <leafValues>
            -2.3148147761821747e-01 -9.2975205183029175e-01</leafValues></_>
        <_>
          <internalNodes>
            0 -1 60 5.4087443277239799e-03</internalNodes>
          <leafValues>
            -5.9220939874649048e-01 3.9168560504913330e-01</leafValues></_>
        <_>
          <internalNodes>
            0 -1 29 -8.5756834596395493e-03</internalNodes>
          <leafValues>
            3.1327891349792480e-01 -7.0559191703796387e-01</leafValues></_>
        <_>
          <internalNodes>
            0 -1 35 -2.4706830736249685e-03</internalNodes>
          <leafValues>
            4.2534545063972473e-01 -4.8433008790016174e-01</leafValues></_>
        <_>
          <internalNodes>
            0 -1 44 7.2860093496274203e-05</internalNodes>
          <leafValues>
            2.6216647028923035e-01 -7.7870643138885498e-01</leafValues></_>
        <_>
          <internalNodes>
            0 -1 36 -9.0645247837528586e-05</internalNodes>
          <leafValues>
            -6.3996046781539917e-01 3.3060741424560547e-01</leafValues></_></weakClassifiers></_>
    <!-- stage 9 -->
    <_>
      <maxWeakCount>7</maxWeakCount>
      <stageThreshold>-2.3282694816589355e+00</stageThreshold>
      <weakClassifiers>
        <_>
          <internalNodes>
            0 -1 34 1.6770091652870178e-01</internalNodes>
          <leafValues>
            -7.8394597768783569e-01 6.7164176702499390e-01</leafValues></_>
        <_>
          <internalNodes>
            0 -1 46 9.9309813231229782e-03</internalNodes>
          <leafValues>
            -7.0378279685974121e-01 2.9470866918563843e-01</leafValues></_>
        <_>
          <internalNodes>
            0 -1 19 -1.3153697550296783e-01</internalNodes>
          <leafValues>
            4.2740437388420105e-01 -5.5977314710617065e-01</leafValues></_>
        <_>
          <internalNodes>
            0 -1 42 -7.9424977302551270e-03</internalNodes>
          <leafValues>
            5.1467102766036987e-01 -4.6017971634864807e-01</leafValues></_>
        <_>
          <internalNodes>
            0 -1 10 1.0988571448251605e-03</internalNodes>
          <leafValues>
            3.1839814782142639e-01 -7.3121511936187744e-01</leafValues></_>
        <_>
          <internalNodes>
            0 -1 66 4.9471696838736534e-03</internalNodes>
          <leafValues>
            -4.3116697669029236e-01 4.5024308562278748e-01</leafValues></_>
        <_>
          <internalNodes>
            0 -1 47 1.1618759162956849e-04</internalNodes>
          <leafValues>
            -7.2831857204437256e-01 2.9218095541000366e-01</leafValues></_></weakClassifiers></_>
    <!-- stage 10 -->
    <_>
      <maxWeakCount>8</maxWeakCount>
      <stageThreshold>-1.8056268692016602e+00</stageThreshold>
      <weakClassifiers>
        <_>
          <internalNodes>
            0 -1 38 1.1397188156843185e-01</internalNodes>
          <leafValues>
            -7.7361321449279785e-01 4.8484849929809570e-01</leafValues></_>
        <_>
          <internalNodes>
            0 -1 7 -1.0865568183362484e-03</internalNodes>
          <leafValues>
            1.8805989623069763e-01 -7.5168323516845703e-01</leafValues></_>
        <_>
          <internalNodes>
            0 -1 40 -2.2718144580721855e-02</internalNodes>
          <leafValues>
            6.4080363512039185e-01 -3.7137079238891602e-01</leafValues></_>
        <_>
          <internalNodes>
            0 -1 12 4.8891932237893343e-05</internalNodes>
          <leafValues>
            3.3369988203048706e-01 -6.5118426084518433e-01</leafValues></_>
        <_>
          <internalNodes>
            0 -1 77 2.2344188764691353e-03</internalNodes>
          <leafValues>
            2.8082469105720520e-01 -7.9972672462463379e-01</leafValues></_>
        <_>
          <internalNodes>
            0 -1 14 -5.8813327923417091e-03</internalNodes>
          <leafValues>
            2.4667558073997498e-01 -9.0857523679733276e-01</leafValues></_>
        <_>
          <internalNodes>
            0 -1 58 -3.7415602128021419e-04</internalNodes>
          <leafValues>
            -7.4307221174240112e-01 2.1937756240367889e-01</leafValues></_>
        <_>
          <internalNodes>
            0 -1 9 4.7212891513481736e-04</internalNodes>
          <leafValues>
            1.6571344435214996e-01 -9.2519229650497437e-01</leafValues></_></weakClassifiers></_>
    <!-- stage 11 -->
    <_>
      <maxWeakCount>7</maxWeakCount>
      <stageThreshold>-1.7891429662704468e+00</stageThreshold>
      <weakClassifiers>
        <_>
          <internalNodes>
            0 -1 80 3.9939329028129578e-02</internalNodes>
          <leafValues>
            -7.7877426147460938e-01 6.7741936445236206e-01</leafValues></_>
        <_>
          <internalNodes>
            0 -1 11 -1.3485589623451233e-01</internalNodes>
          <leafValues>
            4.5693412423133850e-01 -5.8028650283813477e-01</leafValues></_>
        <_>
          <internalNodes>
            0 -1 23 -2.4055721587501466e-04</internalNodes>
          <leafValues>
            -8.3912396430969238e-01 2.2752960026264191e-01</leafValues></_>
        <_>
          <internalNodes>
            0 -1 70 1.1975117377005517e-04</internalNodes>
          <leafValues>
            2.6313373446464539e-01 -7.7575403451919556e-01</leafValues></_>
        <_>
          <internalNodes>
            0 -1 76 -1.1569922789931297e-03</internalNodes>
          <leafValues>
            -9.0322929620742798e-01 2.2933897376060486e-01</leafValues></_>
        <_>
          <internalNodes>
            0 -1 63 8.9205931872129440e-03</internalNodes>
          <leafValues>
            -3.4928458929061890e-01 7.6644313335418701e-01</leafValues></_>
        <_>
          <internalNodes>
            0 -1 75 -3.6892737261950970e-03</internalNodes>
          <leafValues>
            -8.4673619270324707e-01 3.3176842331886292e-01</leafValues></_></weakClassifiers></_>
    <!-- stage 12 -->
    <_>
      <maxWeakCount>7</maxWeakCount>
      <stageThreshold>-1.3977354764938354e+00</stageThreshold>
      <weakClassifiers>
        <_>
          <internalNodes>
            0 -1 59 -2.2704198956489563e-02</internalNodes>
          <leafValues>
            7.5000000000000000e-01 -7.7529764175415039e-01</leafValues></_>
        <_>
          <internalNodes>
            0 -1 31 -5.8095622807741165e-03</internalNodes>
          <leafValues>
            2.2599080204963684e-01 -7.5489020347595215e-01</leafValues></_>
        <_>
          <internalNodes>
            0 -1 32 1.9468425307422876e-04</internalNodes>
          <leafValues>
            1.8021437525749207e-01 -8.3591556549072266e-01</leafValues></_>
        <_>
          <internalNodes>
            0 -1 18 3.2998630777001381e-03</internalNodes>
          <leafValues>
            -6.5009105205535889e-01 2.6090317964553833e-01</leafValues></_>
        <_>
          <internalNodes>
            0 -1 48 -2.0856443792581558e-02</internalNodes>
          <leafValues>
            3.0782410502433777e-01 -7.4572801589965820e-01</leafValues></_>
        <_>
          <internalNodes>
            0 -1 0 -7.1007083170115948e-03</internalNodes>
          <leafValues>
            -8.6239260435104370e-01 2.3230583965778351e-01</leafValues></_>
        <_>
          <internalNodes>
            0 -1 5 -5.6288623454747722e-05</internalNodes>
          <leafValues>
            3.1857439875602722e-01 -7.2643917798995972e-01</leafValues></_></weakClassifiers></_>
    <!-- stage 13 -->
    <_>
      <maxWeakCount>8</maxWeakCount>
      <stageThreshold>-1.6917314529418945e+00</stageThreshold>
      <weakClassifiers>
        <_>
          <internalNodes>
            0 -1 65 -1.5840198099613190e-01</internalNodes>
          <leafValues>
            2.7819550037384033e-01 -8.1846880912780762e-01</leafValues></_>
        <_>
          <internalNodes>
            0 -1 26 -1.1821750085800886e-03</internalNodes>
          <leafValues>
            3.7371191382408142e-01 -6.1276537179946899e-01</leafValues></_>
        <_>
          <internalNodes>
            0 -1 30 -1.4001935487613082e-03</internalNodes>
          <leafValues>
            -7.9161870479583740e-01 2.2921776771545410e-01</leafValues></_>
        <_>
          <internalNodes>
            0 -1 4 -2.0885867998003960e-03</internalNodes>
          <leafValues>
            3.9862918853759766e-01 -5.2287983894348145e-01</leafValues></_>
        <_>
          <internalNodes>
            0 -1 79 -1.2691779993474483e-03</internalNodes>
          <leafValues>
            -8.7511867284774780e-01 2.3533827066421509e-01</leafValues></_>
        <_>
          <internalNodes>
            0 -1 64 2.2498203441500664e-02</internalNodes>
          <leafValues>
            -3.1025931239128113e-01 7.3237609863281250e-01</leafValues></_>
        <_>
          <internalNodes>
            0 -1 52 -1.1815200746059418e-01</internalNodes>
          <leafValues>
            8.4337544441223145e-01 -2.6034921407699585e-01</leafValues></_>
        <_>
          <internalNodes>
            0 -1 78 -5.3589036688208580e-03</internalNodes>
          <leafValues>
            5.5738300085067749e-01 -4.0457111597061157e-01</leafValues></_></weakClassifiers></_></stages>
  <features>
    <_>
      <rects>
        <_>
          0 0 1 40 -1.</_>
        <_>
          0 20 1 20 2.</_></rects>
      <tilted>0</tilted></_>
    <_>
      <rects>
        <_>
          0 0 21 26 -1.</_>
        <_>
          7 0 7 26 3.</_></rects>
      <tilted>0</tilted></_>
    <_>
      <rects>
        <_>
          0 0 30 4 -1.</_>
        <_>
          10 0 10 4 3.</_></rects>
      <tilted>0</tilted></_>
    <_>
      <rects>
        <_>
          0 0 20 10 -1.</_>
        <_>
          0 0 10 5 2.</_>
        <_>
          10 5 10 5 2.</_></rects>
      <tilted>0</tilted></_>
    <_>
      <rects>
        <_>
          0 0 28 6 -1.</_>
        <_>
          0 2 28 2 3.</_></rects>
      <tilted>0</tilted></_>
    <_>
      <rects>
        <_>
          0 1 1 32 -1.</_>
        <_>
          0 17 1 16 2.</_></rects>
      <tilted>0</tilted></_>
    <_>
      <rects>
        <_>
          0 4 18 26 -1.</_>
        <_>
          6 4 6 26 3.</_></rects>
      <tilted>0</tilted></_>
    <_>
      <rects>
        <_>
          0 6 12 1 -1.</_>
        <_>
          6 6 6 1 2.</_></rects>
      <tilted>0</tilted></_>
    <_>
      <rects>
        <_>
          0 6 10 10 -1.</_>
        <_>
          0 11 10 5 2.</_></rects>
      <tilted>0</tilted></_>
    <_>
      <rects>
        <_>
          0 9 6 6 -1.</_>
        <_>
          0 11 6 2 3.</_></rects>
      <tilted>0</tilted></_>
    <_>
      <rects>
        <_>
          0 12 5 12 -1.</_>
        <_>
          0 16 5 4 3.</_></rects>
      <tilted>0</tilted></_>
    <_>
      <rects>
        <_>
          0 13 15 27 -1.</_>
        <_>
          5 13 5 27 3.</_></rects>
      <tilted>0</tilted></_>
    <_>
      <rects>
        <_>
          0 19 1 20 -1.</_>
        <_>
          0 29 1 10 2.</_></rects>
      <tilted>0</tilted></_>
    <_>
      <rects>
        <_>
          0 20 8 14 -1.</_>
        <_>
          4 20 4 14 2.</_></rects>
      <tilted>0</tilted></_>
    <_>
      <rects>
        <_>
          0 24 22 16 -1.</_>
        <_>
          0 24 11 8 2.</_>
        <_>
          11 32 11 8 2.</_></rects>
      <tilted>0</tilted></_>
    <_>
      <rects>
        <_>
          0 33 14 7 -1.</_>
        <_>
          7 33 7 7 2.</_></rects>
      <tilted>0</tilted></_>
    <_>
      <rects>
        <_>
          0 33 30 7 -1.</_>
        <_>
          10 33 10 7 3.</_></rects>
      <tilted>0</tilted></_>
    <_>
      <rects>
        <_>
          1 0 9 39 -1.</_>
        <_>
          4 0 3 39 3.</_></rects>
      <tilted>0</tilted></_>
    <_>
      <rects>
        <_>
          1 3 18 6 -1.</_>
        <_>
          1 3 9 3 2.</_>
        <_>
          10 6 9 3 2.</_></rects>
      <tilted>0</tilted></_>
    <_>
      <rects>
        <_>
          1 4 15 34 -1.</_>
        <_>
          6 4 5 34 3.</_></rects>
      <tilted>0</tilted></_>
    <_>
      <rects>
        <_>
          1 16 15 19 -1.</_>
        <_>
          6 16 5 19 3.</_></rects>
      <tilted>0</tilted></_>
    <_>
      <rects>
        <_>
          1 20 20 20 -1.</_>
        <_>
          1 20 10 10 2.</_>
        <_>
          11 30 10 10 2.</_></rects>
      <tilted>0</tilted></_>
    <_>
      <rects>
        <_>
          1 24 15 14 -1.</_>
        <_>
          6 24 5 14 3.</_></rects>
      <tilted>0</tilted></_>
    <_>
      <rects>
        <_>
          1 36 3 4 -1.</_>
        <_>
          1 38 3 2 2.</_></rects>
      <tilted>0</tilted></_>
    <_>
      <rects>
        <_>
          2 6 12 29 -1.</_>
        <_>
          6 6 4 29 3.</_></rects>
      <tilted>0</tilted></_>
    <_>
      <rects>
        <_>
          2 6 12 31 -1.</_>
        <_>
          6 6 4 31 3.</_></rects>
      <tilted>0</tilted></_>
    <_>
      <rects>
        <_>
          2 17 6 1 -1.</_>
        <_>
          5 17 3 1 2.</_></rects>
      <tilted>0</tilted></_>
    <_>
      <rects>
        <_>
          3 25 21 15 -1.</_>
        <_>
          3 30 21 5 3.</_></rects>
      <tilted>0</tilted></_>
    <_>
      <rects>
        <_>
          3 26 12 14 -1.</_>
        <_>
          7 26 4 14 3.</_></rects>
      <tilted>0</tilted></_>
    <_>
      <rects>
        <_>
          3 27 12 10 -1.</_>
        <_>
          7 27 4 10 3.</_></rects>
      <tilted>0</tilted></_>
    <_>
      <rects>
        <_>
          5 9 3 9 -1.</_>
        <_>
          5 12 3 3 3.</_></rects>
      <tilted>0</tilted></_>
    <_>
      <rects>
        <_>
          6 0 24 3 -1.</_>
        <_>
          14 0 8 3 3.</_></rects>
      <tilted>0</tilted></_>
    <_>
      <rects>
        <_>
          6 18 3 4 -1.</_>
        <_>
          6 20 3 2 2.</_></rects>
      <tilted>0</tilted></_>
    <_>
      <rects>
        <_>
          6 25 15 12 -1.</_>
        <_>
          6 29 15 4 3.</_></rects>
      <tilted>0</tilted></_>
    <_>
      <rects>
        <_>
          7 0 16 21 -1.</_>
        <_>
          7 7 16 7 3.</_></rects>
      <tilted>0</tilted></_>
    <_>
      <rects>
        <_>
          7 0 18 6 -1.</_>
        <_>
          7 2 18 2 3.</_></rects>
      <tilted>0</tilted></_>
    <_>
      <rects>
        <_>
          7 9 6 2 -1.</_>
        <_>
          10 9 3 2 2.</_></rects>
      <tilted>0</tilted></_>
    <_>
      <rects>
        <_>
          7 18 15 9 -1.</_>
        <_>
          7 21 15 3 3.</_></rects>
      <tilted>0</tilted></_>
    <_>
      <rects>
        <_>
          8 2 15 15 -1.</_>
        <_>
          8 7 15 5 3.</_></rects>
      <tilted>0</tilted></_>
    <_>
      <rects>
        <_>
          8 13 9 18 -1.</_>
        <_>
          11 13 3 18 3.</_></rects>
      <tilted>0</tilted></_>
    <_>
      <rects>
        <_>
          8 19 12 9 -1.</_>
        <_>
          8 22 12 3 3.</_></rects>
      <tilted>0</tilted></_>
    <_>
      <rects>
        <_>
          8 32 4 4 -1.</_>
        <_>
          10 32 2 4 2.</_></rects>
      <tilted>0</tilted></_>
    <_>
      <rects>
        <_>
          9 18 12 9 -1.</_>
        <_>
          9 21 12 3 3.</_></rects>
      <tilted>0</tilted></_>
    <_>
      <rects>
        <_>
          9 18 14 9 -1.</_>
        <_>
          9 21 14 3 3.</_></rects>
      <tilted>0</tilted></_>
    <_>
      <rects>
        <_>
          9 22 1 14 -1.</_>
        <_>
          9 29 1 7 2.</_></rects>
      <tilted>0</tilted></_>
    <_>
      <rects>
        <_>
          9 30 3 6 -1.</_>
        <_>
          9 33 3 3 2.</_></rects>
      <tilted>0</tilted></_>
    <_>
      <rects>
        <_>
          10 9 9 14 -1.</_>
        <_>
          10 16 9 7 2.</_></rects>
      <tilted>0</tilted></_>
    <_>
      <rects>
        <_>
          10 21 4 2 -1.</_>
        <_>
          12 21 2 2 2.</_></rects>
      <tilted>0</tilted></_>
    <_>
      <rects>
        <_>
          10 21 11 18 -1.</_>
        <_>
          10 30 11 9 2.</_></rects>
      <tilted>0</tilted></_>
    <_>
      <rects>
        <_>
          10 25 12 12 -1.</_>
        <_>
          10 29 12 4 3.</_></rects>
      <tilted>0</tilted></_>
    <_>
      <rects>
        <_>
          11 1 12 30 -1.</_>
        <_>
          15 1 4 30 3.</_></rects>
      <tilted>0</tilted></_>
    <_>
      <rects>
        <_>
          11 15 12 13 -1.</_>
        <_>
          15 15 4 13 3.</_></rects>
      <tilted>0</tilted></_>
    <_>
      <rects>
        <_>
          11 17 18 14 -1.</_>
        <_>
          17 17 6 14 3.</_></rects>
      <tilted>0</tilted></_>
    <_>
      <rects>
        <_>
          11 35 4 4 -1.</_>
        <_>
          13 35 2 4 2.</_></rects>
      <tilted>0</tilted></_>
    <_>
      <rects>
        <_>
          12 12 18 25 -1.</_>
        <_>
          18 12 6 25 3.</_></rects>
      <tilted>0</tilted></_>
    <_>
      <rects>
        <_>
          12 13 8 9 -1.</_>
        <_>
          12 16 8 3 3.</_></rects>
      <tilted>0</tilted></_>
    <_>
      <rects>
        <_>
          12 24 18 16 -1.</_>
        <_>
          12 24 9 8 2.</_>
        <_>
          21 32 9 8 2.</_></rects>
      <tilted>0</tilted></_>
    <_>
      <rects>
        <_>
          12 28 18 12 -1.</_>
        <_>
          12 32 18 4 3.</_></rects>
      <tilted>0</tilted></_>
    <_>
      <rects>
        <_>
          12 35 10 2 -1.</_>
        <_>
          17 35 5 2 2.</_></rects>
      <tilted>0</tilted></_>
    <_>
      <rects>
        <_>
          13 9 9 9 -1.</_>
        <_>
          13 12 9 3 3.</_></rects>
      <tilted>0</tilted></_>
    <_>
      <rects>
        <_>
          13 15 9 6 -1.</_>
        <_>
          13 17 9 2 3.</_></rects>
      <tilted>0</tilted></_>
    <_>
      <rects>
        <_>
          13 19 6 9 -1.</_>
        <_>
          13 22 6 3 3.</_></rects>
      <tilted>0</tilted></_>
    <_>
      <rects>
        <_>
          13 20 12 8 -1.</_>
        <_>
          17 20 4 8 3.</_></rects>
      <tilted>0</tilted></_>
    <_>
      <rects>
        <_>
          14 6 4 16 -1.</_>
        <_>
          16 6 2 16 2.</_></rects>
      <tilted>0</tilted></_>
    <_>
      <rects>
        <_>
          14 11 6 19 -1.</_>
        <_>
          16 11 2 19 3.</_></rects>
      <tilted>0</tilted></_>
    <_>
      <rects>
        <_>
          14 12 15 27 -1.</_>
        <_>
          19 12 5 27 3.</_></rects>
      <tilted>0</tilted></_>
    <_>
      <rects>
        <_>
          14 39 16 1 -1.</_>
        <_>
          22 39 8 1 2.</_></rects>
      <tilted>0</tilted></_>
    <_>
      <rects>
        <_>
          15 0 14 10 -1.</_>
        <_>
          15 0 7 5 2.</_>
        <_>
          22 5 7 5 2.</_></rects>
      <tilted>0</tilted></_>
    <_>
      <rects>
        <_>
          15 16 4 6 -1.</_>
        <_>
          15 18 4 2 3.</_></rects>
      <tilted>0</tilted></_>
    <_>
      <rects>
        <_>
          15 16 15 15 -1.</_>
        <_>
          20 16 5 15 3.</_></rects>
      <tilted>0</tilted></_>
    <_>
      <rects>
        <_>
          16 38 3 2 -1.</_>
        <_>
          16 39 3 1 2.</_></rects>
      <tilted>0</tilted></_>
    <_>
      <rects>
        <_>
          18 2 12 30 -1.</_>
        <_>
          22 2 4 30 3.</_></rects>
      <tilted>0</tilted></_>
    <_>
      <rects>
        <_>
          18 15 12 25 -1.</_>
        <_>
          22 15 4 25 3.</_></rects>
      <tilted>0</tilted></_>
    <_>
      <rects>
        <_>
          18 18 12 12 -1.</_>
        <_>
          22 18 4 12 3.</_></rects>
      <tilted>0</tilted></_>
    <_>
      <rects>
        <_>
          21 21 9 18 -1.</_>
        <_>
          21 27 9 6 3.</_></rects>
      <tilted>0</tilted></_>
    <_>
      <rects>
        <_>
          22 21 8 6 -1.</_>
        <_>
          22 24 8 3 2.</_></rects>
      <tilted>0</tilted></_>
    <_>
      <rects>
        <_>
          22 29 8 5 -1.</_>
        <_>
          26 29 4 5 2.</_></rects>
      <tilted>0</tilted></_>
    <_>
      <rects>
        <_>
          23 14 7 24 -1.</_>
        <_>
          23 22 7 8 3.</_></rects>
      <tilted>0</tilted></_>
    <_>
      <rects>
        <_>
          24 7 6 33 -1.</_>
        <_>
          26 7 2 33 3.</_></rects>
      <tilted>0</tilted></_>
    <_>
      <rects>
        <_>
          24 29 6 6 -1.</_>
        <_>
          24 32 6 3 2.</_></rects>
      <tilted>0</tilted></_>
    <_>
      <rects>
        <_>
          26 4 4 24 -1.</_>
        <_>
          28 4 2 24 2.</_></rects>
      <tilted>0</tilted></_>
    <_>
      <rects>
        <_>
          26 18 4 12 -1.</_>
        <_>
          26 22 4 4 3.</_></rects>
      <tilted>0</tilted></_>
    <_>
      <rects>
        <_>
          29 1 1 33 -1.</_>
        <_>
          29 12 1 11 3.</_></rects>
      <tilted>0</tilted></_></features></cascade>
</opencv_storage>
