<?xml version="1.0"?>
<opencv_storage>
<cascade>
  <stageType>BOOST</stageType>
  <featureType>HAAR</featureType>
  <height>40</height>
  <width>30</width>
  <stageParams>
    <boostType>GAB</boostType>
    <minHitRate>9.9500000476837158e-01</minHitRate>
    <maxFalseAlarm>5.0000000000000000e-01</maxFalseAlarm>
    <weightTrimRate>9.4999998807907104e-01</weightTrimRate>
    <maxDepth>1</maxDepth>
    <maxWeakCount>100</maxWeakCount></stageParams>
  <featureParams>
    <maxCatCount>0</maxCatCount>
    <featSize>1</featSize>
    <mode>BASIC</mode></featureParams>
  <stageNum>13</stageNum>
  <stages>
    <!-- stage 0 -->
    <_>
      <maxWeakCount>3</maxWeakCount>
      <stageThreshold>-1.2934328317642212e+00</stageThreshold>
      <weakClassifiers>
        <_>
          <internalNodes>
            0 -1 14 -1.4038337767124176e-01</internalNodes>
          <leafValues>
            7.4011301994323730e-01 -9.2477512359619141e-01</leafValues></_>
        <_>
          <internalNodes>
            0 -1 65 -1.1454273946583271e-02</internalNodes>
          <leafValues>
            4.6725267171859741e-01 -8.9903688430786133e-01</leafValues></_>
        <_>
          <internalNodes>
            0 -1 9 -2.2295378148555756e-02</internalNodes>
          <leafValues>
            6.5335398912429810e-01 -8.3591037988662720e-01</leafValues></_></weakClassifiers></_>
    <!-- stage 1 -->
    <_>
      <maxWeakCount>4</maxWeakCount>
      <stageThreshold>-1.8588618040084839e+00</stageThreshold>
      <weakClassifiers>
        <_>
          <internalNodes>
            0 -1 19 -1.0298119485378265e-01</internalNodes>
          <leafValues>
            2.9004329442977905e-01 -9.1274595260620117e-01</leafValues></_>
        <_>
          <internalNodes>
            0 -1 38 -1.2747557833790779e-02</internalNodes>
          <leafValues>
            7.2207134962081909e-01 -7.3608171939849854e-01</leafValues></_>
        <_>
          <internalNodes>
            0 -1 61 -1.3018415868282318e-01</internalNodes>
          <leafValues>
            6.9868290424346924e-01 -6.9378596544265747e-01</leafValues></_>
        <_>
          <internalNodes>
            0 -1 43 7.5804855441674590e-05</internalNodes>
          <leafValues>
            -8.1635224819183350e-01 4.8375192284584045e-01</leafValues></_></weakClassifiers></_>
    <!-- stage 2 -->
    <_>
      <maxWeakCount>6</maxWeakCount>
      <stageThreshold>-2.2136094570159912e+00</stageThreshold>
      <weakClassifiers>
        <_>
          <internalNodes>
            0 -1 16 -7.7430397272109985e-02</internalNodes>
          <leafValues>
            2.6923078298568726e-01 -8.8590604066848755e-01</leafValues></_>
        <_>
          <internalNodes>
            0 -1 26 -7.3652113787829876e-03</internalNodes>
          <leafValues>
            3.2868504524230957e-01 -8.5576176643371582e-01</leafValues></_>
        <_>
          <internalNodes>
            0 -1 63 -6.1008356511592865e-02</internalNodes>
          <leafValues>
            3.9877861738204956e-01 -7.5183099508285522e-01</leafValues></_>
        <_>
          <internalNodes>
            0 -1 58 1.4078006148338318e-02</internalNodes>
          <leafValues>
            -8.0175495147705078e-01 3.9010465145111084e-01</leafValues></_>
        <_>
          <internalNodes>
            0 -1 23 -2.9235524125397205e-03</internalNodes>
          <leafValues>
            4.1923230886459351e-01 -7.4031555652618408e-01</leafValues></_>
        <_>
          <internalNodes>
            0 -1 20 -2.1885264664888382e-02</internalNodes>
          <leafValues>
            6.3010030984878540e-01 -5.1482027769088745e-01</leafValues></_></weakClassifiers></_>
    <!-- stage 3 -->
    <_>
      <maxWeakCount>5</maxWeakCount>
      <stageThreshold>-1.5864727497100830e+00</stageThreshold>
      <weakClassifiers>
        <_>
          <internalNodes>
            0 -1 13 -1.8765068054199219e-01</internalNodes>
          <leafValues>
            -7.0512823760509491e-02 -8.9889705181121826e-01</leafValues></_>
        <_>
          <internalNodes>
            0 -1 49 -6.9614676758646965e-03</internalNodes>
          <leafValues>
            3.2154598832130432e-01 -7.0644795894622803e-01</leafValues></_>
        <_>
          <internalNodes>
            0 -1 0 -1.7913946881890297e-02</internalNodes>
          <leafValues>
            3.9836227893829346e-01 -7.5003725290298462e-01</leafValues></_>
        <_>
          <internalNodes>
            0 -1 25 1.9289935007691383e-03</internalNodes>
          <leafValues>
            2.9425311088562012e-01 -9.6744829416275024e-01</leafValues></_>
        <_>
          <internalNodes>
            0 -1 39 8.9409202337265015e-03</internalNodes>
          <leafValues>
            -5.5333763360977173e-01 5.1982122659683228e-01</leafValues></_></weakClassifiers></_>
    <!-- stage 4 -->
    <_>
      <maxWeakCount>6</maxWeakCount>
      <stageThreshold>-2.0174038410186768e+00</stageThreshold>
      <weakClassifiers>
        <_>
          <internalNodes>
            0 -1 48 3.8980994373559952e-02</internalNodes>
          <leafValues>
            -7.7860325574874878e-01 8.8888889551162720e-01</leafValues></_>
        <_>
          <internalNodes>
            0 -1 18 -9.7332097589969635e-02</internalNodes>
          <leafValues>
            3.6683979630470276e-01 -7.1897161006927490e-01</leafValues></_>
        <_>
          <internalNodes>
            0 -1 10 -4.6114116907119751e-02</internalNodes>
          <leafValues>
            3.8943320512771606e-01 -7.7395844459533691e-01</leafValues></_>
        <_>
          <internalNodes>
            0 -1 74 -5.3537968778982759e-04</internalNodes>
          <leafValues>
            3.0473443865776062e-01 -8.4267705678939819e-01</leafValues></_>
        <_>
          <internalNodes>
            0 -1 64 -6.5616339445114136e-02</internalNodes>
          <leafValues>
            5.1922172307968140e-01 -5.5117166042327881e-01</leafValues></_>
        <_>
          <internalNodes>
            0 -1 29 -1.9252924248576164e-03</internalNodes>
          <leafValues>
            5.0056672096252441e-01 -5.7352745532989502e-01</leafValues></_></weakClassifiers></_>
    <!-- stage 5 -->
    <_>
      <maxWeakCount>6</maxWeakCount>
      <stageThreshold>-2.1265509128570557e+00</stageThreshold>
      <weakClassifiers>
        <_>
          <internalNodes>
            0 -1 53 8.3116412162780762e-02</internalNodes>
          <leafValues>
            -7.8076064586639404e-01 7.9661017656326294e-01</leafValues></_>
        <_>
          <internalNodes>
            0 -1 1 -2.4148856103420258e-01</internalNodes>
          <leafValues>
            3.7311196327209473e-01 -6.8332588672637939e-01</leafValues></_>
        <_>
          <internalNodes>
            0 -1 24 -1.5233352780342102e-02</internalNodes>
          <leafValues>
            4.7857990860939026e-01 -5.8151537179946899e-01</leafValues></_>
        <_>
          <internalNodes>
            0 -1 60 -8.9781090617179871e-02</internalNodes>
          <leafValues>
            4.5324072241783142e-01 -6.3823997974395752e-01</leafValues></_>
        <_>
          <internalNodes>
            0 -1 32 -3.3224574290215969e-03</internalNodes>
          <leafValues>
            2.9257255792617798e-01 -7.6783293485641479e-01</leafValues></_>
        <_>
          <internalNodes>
            0 -1 51 -2.6563456049188972e-04</internalNodes>
          <leafValues>
            -8.9153981208801270e-01 2.6471841335296631e-01</leafValues></_></weakClassifiers></_>
    <!-- stage 6 -->
    <_>
      <maxWeakCount>7</maxWeakCount>
      <stageThreshold>-1.4685305356979370e+00</stageThreshold>
      <weakClassifiers>
        <_>
          <internalNodes>
            0 -1 47 8.1841751933097839e-02</internalNodes>
          <leafValues>
            -7.7546471357345581e-01 7.8181821107864380e-01</leafValues></_>
        <_>
          <internalNodes>
            0 -1 21 -3.9885461330413818e-02</internalNodes>
          <leafValues>
            2.4039614200592041e-01 -6.8636572360992432e-01</leafValues></_>
        <_>
          <internalNodes>
            0 -1 66 -1.3355888426303864e-02</internalNodes>
          <leafValues>
            3.3150020241737366e-01 -7.1698135137557983e-01</leafValues></_>
        <_>
          <internalNodes>
            0 -1 52 5.9034815058112144e-04</internalNodes>
          <leafValues>
            2.6740846037864685e-01 -8.4660112857818604e-01</leafValues></_>
        <_>
          <internalNodes>
            0 -1 17 7.7834737021476030e-04</internalNodes>
          <leafValues>
            2.7685704827308655e-01 -8.0989384651184082e-01</leafValues></_>
        <_>
          <internalNodes>
            0 -1 57 -1.8468294292688370e-02</internalNodes>
          <leafValues>
            6.8032318353652954e-01 -3.5861304402351379e-01</leafValues></_>
        <_>
          <internalNodes>
            0 -1 36 1.3744567334651947e-01</internalNodes>
          <leafValues>
            -3.2705974578857422e-01 7.9484093189239502e-01</leafValues></_></weakClassifiers></_>
    <!-- stage 7 -->
    <_>
      <maxWeakCount>4</maxWeakCount>
      <stageThreshold>-1.4287779331207275e+00</stageThreshold>
      <weakClassifiers>
        <_>
          <internalNodes>
            0 -1 42 -1.7123430967330933e-02</internalNodes>
          <leafValues>
            3.7837836891412735e-02 -8.2880657911300659e-01</leafValues></_>
        <_>
          <internalNodes>
            0 -1 22 -1.6895560547709465e-03</internalNodes>
          <leafValues>
            1.7105355858802795e-01 -7.6630485057830811e-01</leafValues></_>
        <_>
          <internalNodes>
            0 -1 11 -2.3579539265483618e-04</internalNodes>
          <leafValues>
            -8.6605209112167358e-01 2.4828626215457916e-01</leafValues></_>
        <_>
          <internalNodes>
            0 -1 73 7.4222253169864416e-04</internalNodes>
          <leafValues>
            2.6679903268814087e-01 -7.7161729335784912e-01</leafValues></_></weakClassifiers></_>
    <!-- stage 8 -->
    <_>
      <maxWeakCount>5</maxWeakCount>
      <stageThreshold>-1.5312108993530273e+00</stageThreshold>
      <weakClassifiers>
        <_>
          <internalNodes>
            0 -1 54 8.1965729594230652e-02</internalNodes>
          <leafValues>
            -7.6288658380508423e-01 8.5714286565780640e-01</leafValues></_>
        <_>
          <internalNodes>
            0 -1 4 -2.9961556196212769e-02</internalNodes>
          <leafValues>
            1.8556924164295197e-01 -7.1274292469024658e-01</leafValues></_>
        <_>
          <internalNodes>
            0 -1 71 -1.4643002941738814e-04</internalNodes>
          <leafValues>
            -8.7374156713485718e-01 2.0095475018024445e-01</leafValues></_>
        <_>
          <internalNodes>
            0 -1 5 -7.6901698776055127e-05</internalNodes>
          <leafValues>
            3.6971250176429749e-01 -6.1048555374145508e-01</leafValues></_>
        <_>
          <internalNodes>
            0 -1 28 -1.8071357160806656e-02</internalNodes>
          <leafValues>
            4.3765211105346680e-01 -4.4986447691917419e-01</leafValues></_></weakClassifiers></_>
    <!-- stage 9 -->
    <_>
      <maxWeakCount>6</maxWeakCount>
      <stageThreshold>-1.5183435678482056e+00</stageThreshold>
      <weakClassifiers>
        <_>
          <internalNodes>
            0 -1 27 1.1061847209930420e-01</internalNodes>
          <leafValues>
            -7.7678573131561279e-01 7.8571426868438721e-01</leafValues></_>
        <_>
          <internalNodes>
            0 -1 30 1.2272149324417114e-02</internalNodes>
          <leafValues>
            -7.9273104667663574e-01 3.6090472340583801e-01</leafValues></_>
        <_>
          <internalNodes>
            0 -1 8 -2.3390804417431355e-03</internalNodes>
          <leafValues>
            3.3414345979690552e-01 -7.9277777671813965e-01</leafValues></_>
        <_>
          <internalNodes>
            0 -1 62 -3.6879584193229675e-02</internalNodes>
          <leafValues>
            4.4247600436210632e-01 -5.2105981111526489e-01</leafValues></_>
        <_>
          <internalNodes>
            0 -1 69 -7.7471550321206450e-04</internalNodes>
          <leafValues>
            -9.1180610656738281e-01 2.9753586649894714e-01</leafValues></_>
        <_>
          <internalNodes>
            0 -1 56 -1.5621559577994049e-04</internalNodes>
          <leafValues>
            1.8635983765125275e-01 -8.6378175020217896e-01</leafValues></_></weakClassifiers></_>
    <!-- stage 10 -->
    <_>
      <maxWeakCount>8</maxWeakCount>
      <stageThreshold>-1.7462176084518433e+00</stageThreshold>
      <weakClassifiers>
        <_>
          <internalNodes>
            0 -1 35 2.1394214034080505e-01</internalNodes>
          <leafValues>
            -7.6740741729736328e-01 7.2000002861022949e-01</leafValues></_>
        <_>
          <internalNodes>
            0 -1 46 -2.2246220707893372e-01</internalNodes>
          <leafValues>
            4.4186341762542725e-01 -5.8160310983657837e-01</leafValues></_>
        <_>
          <internalNodes>
            0 -1 3 -4.6269633457995951e-05</internalNodes>
          <leafValues>
            4.2500212788581848e-01 -5.9786790609359741e-01</leafValues></_>
        <_>
          <internalNodes>
            0 -1 59 -3.3917353721335530e-04</internalNodes>
          <leafValues>
            -8.1474035978317261e-01 2.9881730675697327e-01</leafValues></_>
        <_>
          <internalNodes>
            0 -1 15 6.0080680996179581e-03</internalNodes>
          <leafValues>
            3.3890721201896667e-01 -6.5975445508956909e-01</leafValues></_>
        <_>
          <internalNodes>
            0 -1 40 1.1277304589748383e-01</internalNodes>
          <leafValues>
            -2.8815859556198120e-01 7.2789198160171509e-01</leafValues></_>
        <_>
          <internalNodes>
            0 -1 55 -7.9809930175542831e-03</internalNodes>
          <leafValues>
            7.0670425891876221e-01 -3.1858998537063599e-01</leafValues></_>
        <_>
          <internalNodes>
            0 -1 70 -2.8694540378637612e-04</internalNodes>
          <leafValues>
            -9.3016719818115234e-01 2.6037248969078064e-01</leafValues></_></weakClassifiers></_>
    <!-- stage 11 -->
    <_>
      <maxWeakCount>9</maxWeakCount>
      <stageThreshold>-2.2790908813476563e+00</stageThreshold>
      <weakClassifiers>
        <_>
          <internalNodes>
            0 -1 45 1.3998156785964966e-01</internalNodes>
          <leafValues>
            -7.6176470518112183e-01 8.9999997615814209e-01</leafValues></_>
        <_>
          <internalNodes>
            0 -1 34 6.7632898688316345e-02</internalNodes>
          <leafValues>
            -5.2751225233078003e-01 3.9514845609664917e-01</leafValues></_>
        <_>
          <internalNodes>
            0 -1 7 -5.9244583826512098e-04</internalNodes>
          <leafValues>
            -8.8896405696868896e-01 2.5155055522918701e-01</leafValues></_>
        <_>
          <internalNodes>
            0 -1 41 -5.5984132923185825e-03</internalNodes>
          <leafValues>
            4.4559642672538757e-01 -4.5354020595550537e-01</leafValues></_>
        <_>
          <internalNodes>
            0 -1 67 1.1308592511340976e-03</internalNodes>
          <leafValues>
            3.6045020818710327e-01 -6.5709006786346436e-01</leafValues></_>
        <_>
          <internalNodes>
            0 -1 50 -1.0372797027230263e-02</internalNodes>
          <leafValues>
            6.9180852174758911e-01 -3.3949241042137146e-01</leafValues></_>
        <_>
          <internalNodes>
            0 -1 6 -3.5079143941402435e-02</internalNodes>
          <leafValues>
            5.2113288640975952e-01 -4.7409915924072266e-01</leafValues></_>
        <_>
          <internalNodes>
            0 -1 44 5.9869006508961320e-04</internalNodes>
          <leafValues>
            2.8619852662086487e-01 -6.8658995628356934e-01</leafValues></_>
        <_>
          <internalNodes>
            0 -1 12 4.9593225412536412e-05</internalNodes>
          <leafValues>
            3.8581526279449463e-01 -6.2088149785995483e-01</leafValues></_></weakClassifiers></_>
    <!-- stage 12 -->
    <_>
      <maxWeakCount>6</maxWeakCount>
      <stageThreshold>-1.7516355514526367e+00</stageThreshold>
      <weakClassifiers>
        <_>
          <internalNodes>
            0 -1 68 -1.2553833425045013e-02</internalNodes>
          <leafValues>
            -1.9875776767730713e-01 -8.6827456951141357e-01</leafValues></_>
        <_>
          <internalNodes>
            0 -1 37 -1.7115075141191483e-02</internalNodes>
          <leafValues>
            3.8192003965377808e-01 -6.0409498214721680e-01</leafValues></_>
        <_>
          <internalNodes>
            0 -1 72 -1.2881916482001543e-03</internalNodes>
          <leafValues>
            3.1251597404479980e-01 -6.6894167661666870e-01</leafValues></_>
        <_>
          <internalNodes>
            0 -1 2 -1.6829626262187958e-01</internalNodes>
          <leafValues>
            5.5921190977096558e-01 -4.2383348941802979e-01</leafValues></_>
        <_>
          <internalNodes>
            0 -1 33 4.2687205132097006e-04</internalNodes>
          <leafValues>
            3.2466405630111694e-01 -8.5456198453903198e-01</leafValues></_>
        <_>
          <internalNodes>
            0 -1 31 2.6343013159930706e-03</internalNodes>
          <leafValues>
            -4.9261260032653809e-01 4.4274345040321350e-01</leafValues></_></weakClassifiers></_></stages>
  <features>
    <_>
      <rects>
        <_>
          0 0 30 4 -1.</_>
        <_>
          10 0 10 4 3.</_></rects>
      <tilted>0</tilted></_>
    <_>
      <rects>
        <_>
          0 1 18 39 -1.</_>
        <_>
          6 1 6 39 3.</_></rects>
      <tilted>0</tilted></_>
    <_>
      <rects>
        <_>
          0 1 21 25 -1.</_>
        <_>
          7 1 7 25 3.</_></rects>
      <tilted>0</tilted></_>
    <_>
      <rects>
        <_>
          0 22 1 12 -1.</_>
        <_>
          0 28 1 6 2.</_></rects>
      <tilted>0</tilted></_>
    <_>
      <rects>
        <_>
          0 22 18 16 -1.</_>
        <_>
          0 22 9 8 2.</_>
        <_>
          9 30 9 8 2.</_></rects>
      <tilted>0</tilted></_>
    <_>
      <rects>
        <_>
          0 23 1 16 -1.</_>
        <_>
          0 31 1 8 2.</_></rects>
      <tilted>0</tilted></_>
    <_>
      <rects>
        <_>
          0 23 10 9 -1.</_>
        <_>
          5 23 5 9 2.</_></rects>
      <tilted>0</tilted></_>
    <_>
      <rects>
        <_>
          0 30 1 10 -1.</_>
        <_>
          0 35 1 5 2.</_></rects>
      <tilted>0</tilted></_>
    <_>
      <rects>
        <_>
          0 32 12 1 -1.</_>
        <_>
          6 32 6 1 2.</_></rects>
      <tilted>0</tilted></_>
    <_>
      <rects>
        <_>
          0 33 14 6 -1.</_>
        <_>
          7 33 7 6 2.</_></rects>
      <tilted>0</tilted></_>
    <_>
      <rects>
        <_>
          0 34 30 6 -1.</_>
        <_>
          10 34 10 6 3.</_></rects>
      <tilted>0</tilted></_>
    <_>
      <rects>
        <_>
          0 36 5 4 -1.</_>
        <_>
          0 38 5 2 2.</_></rects>
      <tilted>0</tilted></_>
    <_>
      <rects>
        <_>
          0 38 20 2 -1.</_>
        <_>
          0 38 10 1 2.</_>
        <_>
          10 39 10 1 2.</_></rects>
      <tilted>0</tilted></_>
    <_>
      <rects>
        <_>
          1 0 15 40 -1.</_>
        <_>
          6 0 5 40 3.</_></rects>
      <tilted>0</tilted></_>
    <_>
      <rects>
        <_>
          1 6 15 29 -1.</_>
        <_>
          6 6 5 29 3.</_></rects>
      <tilted>0</tilted></_>
    <_>
      <rects>
        <_>
          1 11 8 12 -1.</_>
        <_>
          1 17 8 6 2.</_></rects>
      <tilted>0</tilted></_>
    <_>
      <rects>
        <_>
          1 13 8 25 -1.</_>
        <_>
          5 13 4 25 2.</_></rects>
      <tilted>0</tilted></_>
    <_>
      <rects>
        <_>
          2 1 2 18 -1.</_>
        <_>
          2 10 2 9 2.</_></rects>
      <tilted>0</tilted></_>
    <_>
      <rects>
        <_>
          2 2 12 38 -1.</_>
        <_>
          6 2 4 38 3.</_></rects>
      <tilted>0</tilted></_>
    <_>
      <rects>
        <_>
          2 3 12 35 -1.</_>
        <_>
          6 3 4 35 3.</_></rects>
      <tilted>0</tilted></_>
    <_>
      <rects>
        <_>
          2 16 9 24 -1.</_>
        <_>
          5 16 3 24 3.</_></rects>
      <tilted>0</tilted></_>
    <_>
      <rects>
        <_>
          3 7 9 33 -1.</_>
        <_>
          6 7 3 33 3.</_></rects>
      <tilted>0</tilted></_>
    <_>
      <rects>
        <_>
          4 0 15 9 -1.</_>
        <_>
          4 3 15 3 3.</_></rects>
      <tilted>0</tilted></_>
    <_>
      <rects>
        <_>
          5 25 9 6 -1.</_>
        <_>
          8 25 3 6 3.</_></rects>
      <tilted>0</tilted></_>
    <_>
      <rects>
        <_>
          5 27 25 12 -1.</_>
        <_>
          5 31 25 4 3.</_></rects>
      <tilted>0</tilted></_>
    <_>
      <rects>
        <_>
          5 34 18 3 -1.</_>
        <_>
          14 34 9 3 2.</_></rects>
      <tilted>0</tilted></_>
    <_>
      <rects>
        <_>
          6 0 24 2 -1.</_>
        <_>
          14 0 8 2 3.</_></rects>
      <tilted>0</tilted></_>
    <_>
      <rects>
        <_>
          6 1 16 18 -1.</_>
        <_>
          6 7 16 6 3.</_></rects>
      <tilted>0</tilted></_>
    <_>
      <rects>
        <_>
          6 15 18 18 -1.</_>
        <_>
          6 21 18 6 3.</_></rects>
      <tilted>0</tilted></_>
    <_>
      <rects>
        <_>
          7 0 18 6 -1.</_>
        <_>
          7 2 18 2 3.</_></rects>
      <tilted>0</tilted></_>
    <_>
      <rects>
        <_>
          8 8 16 16 -1.</_>
        <_>
          8 16 16 8 2.</_></rects>
      <tilted>0</tilted></_>
    <_>
      <rects>
        <_>
          8 10 4 9 -1.</_>
        <_>
          10 10 2 9 2.</_></rects>
      <tilted>0</tilted></_>
    <_>
      <rects>
        <_>
          8 26 9 12 -1.</_>
        <_>
          8 32 9 6 2.</_></rects>
      <tilted>0</tilted></_>
    <_>
      <rects>
        <_>
          8 35 12 1 -1.</_>
        <_>
          14 35 6 1 2.</_></rects>
      <tilted>0</tilted></_>
    <_>
      <rects>
        <_>
          10 1 16 30 -1.</_>
        <_>
          10 16 16 15 2.</_></rects>
      <tilted>0</tilted></_>
    <_>
      <rects>
        <_>
          10 6 18 20 -1.</_>
        <_>
          16 6 6 20 3.</_></rects>
      <tilted>0</tilted></_>
    <_>
      <rects>
        <_>
          10 9 18 23 -1.</_>
        <_>
          16 9 6 23 3.</_></rects>
      <tilted>0</tilted></_>
    <_>
      <rects>
        <_>
          10 17 9 12 -1.</_>
        <_>
          10 21 9 4 3.</_></rects>
      <tilted>0</tilted></_>
    <_>
      <rects>
        <_>
          10 18 11 9 -1.</_>
        <_>
          10 21 11 3 3.</_></rects>
      <tilted>0</tilted></_>
    <_>
      <rects>
        <_>
          11 4 4 27 -1.</_>
        <_>
          13 4 2 27 2.</_></rects>
      <tilted>0</tilted></_>
    <_>
      <rects>
        <_>
          11 7 12 24 -1.</_>
        <_>
          15 7 4 24 3.</_></rects>
      <tilted>0</tilted></_>
    <_>
      <rects>
        <_>
          11 9 12 12 -1.</_>
        <_>
          11 13 12 4 3.</_></rects>
      <tilted>0</tilted></_>
    <_>
      <rects>
        <_>
          11 19 8 9 -1.</_>
        <_>
          11 22 8 3 3.</_></rects>
      <tilted>0</tilted></_>
    <_>
      <rects>
        <_>
          11 20 2 5 -1.</_>
        <_>
          12 20 1 5 2.</_></rects>
      <tilted>0</tilted></_>
    <_>
      <rects>
        <_>
          11 33 12 2 -1.</_>
        <_>
          15 33 4 2 3.</_></rects>
      <tilted>0</tilted></_>
    <_>
      <rects>
        <_>
          12 0 7 27 -1.</_>
        <_>
          12 9 7 9 3.</_></rects>
      <tilted>0</tilted></_>
    <_>
      <rects>
        <_>
          12 1 18 32 -1.</_>
        <_>
          18 1 6 32 3.</_></rects>
      <tilted>0</tilted></_>
    <_>
      <rects>
        <_>
          12 11 7 15 -1.</_>
        <_>
          12 16 7 5 3.</_></rects>
      <tilted>0</tilted></_>
    <_>
      <rects>
        <_>
          12 11 8 8 -1.</_>
        <_>
          12 15 8 4 2.</_></rects>
      <tilted>0</tilted></_>
    <_>
      <rects>
        <_>
          12 17 7 12 -1.</_>
        <_>
          12 21 7 4 3.</_></rects>
      <tilted>0</tilted></_>
    <_>
      <rects>
        <_>
          12 17 8 9 -1.</_>
        <_>
          12 20 8 3 3.</_></rects>
      <tilted>0</tilted></_>
    <_>
      <rects>
        <_>
          12 36 6 1 -1.</_>
        <_>
          15 36 3 1 2.</_></rects>
      <tilted>0</tilted></_>
    <_>
      <rects>
        <_>
          12 36 12 1 -1.</_>
        <_>
          16 36 4 1 3.</_></rects>
      <tilted>0</tilted></_>
    <_>
      <rects>
        <_>
          13 2 7 18 -1.</_>
        <_>
          13 11 7 9 2.</_></rects>
      <tilted>0</tilted></_>
    <_>
      <rects>
        <_>
          13 12 9 12 -1.</_>
        <_>
          13 16 9 4 3.</_></rects>
      <tilted>0</tilted></_>
    <_>
      <rects>
        <_>
          13 13 9 17 -1.</_>
        <_>
          16 13 3 17 3.</_></rects>
      <tilted>0</tilted></_>
    <_>
      <rects>
        <_>
          13 28 2 8 -1.</_>
        <_>
          13 32 2 4 2.</_></rects>
      <tilted>0</tilted></_>
    <_>
      <rects>
        <_>
          14 9 9 22 -1.</_>
        <_>
          17 9 3 22 3.</_></rects>
      <tilted>0</tilted></_>
    <_>
      <rects>
        <_>
          14 17 16 22 -1.</_>
        <_>
          14 17 8 11 2.</_>
        <_>
          22 28 8 11 2.</_></rects>
      <tilted>0</tilted></_>
    <_>
      <rects>
        <_>
          14 36 9 1 -1.</_>
        <_>
          17 36 3 1 3.</_></rects>
      <tilted>0</tilted></_>
    <_>
      <rects>
        <_>
          15 0 15 35 -1.</_>
        <_>
          20 0 5 35 3.</_></rects>
      <tilted>0</tilted></_>
    <_>
      <rects>
        <_>
          15 0 15 40 -1.</_>
        <_>
          20 0 5 40 3.</_></rects>
      <tilted>0</tilted></_>
    <_>
      <rects>
        <_>
          15 12 12 22 -1.</_>
        <_>
          19 12 4 22 3.</_></rects>
      <tilted>0</tilted></_>
    <_>
      <rects>
        <_>
          15 15 15 25 -1.</_>
        <_>
          20 15 5 25 3.</_></rects>
      <tilted>0</tilted></_>
    <_>
      <rects>
        <_>
          15 17 15 15 -1.</_>
        <_>
          20 17 5 15 3.</_></rects>
      <tilted>0</tilted></_>
    <_>
      <rects>
        <_>
          18 22 12 8 -1.</_>
        <_>
          22 22 4 8 3.</_></rects>
      <tilted>0</tilted></_>
    <_>
      <rects>
        <_>
          18 24 12 14 -1.</_>
        <_>
          22 24 4 14 3.</_></rects>
      <tilted>0</tilted></_>
    <_>
      <rects>
        <_>
          19 13 2 24 -1.</_>
        <_>
          19 21 2 8 3.</_></rects>
      <tilted>0</tilted></_>
    <_>
      <rects>
        <_>
          21 5 9 16 -1.</_>
        <_>
          24 5 3 16 3.</_></rects>
      <tilted>0</tilted></_>
    <_>
      <rects>
        <_>
          22 19 4 16 -1.</_>
        <_>
          22 19 2 8 2.</_>
        <_>
          24 27 2 8 2.</_></rects>
      <tilted>0</tilted></_>
    <_>
      <rects>
        <_>
          22 34 8 6 -1.</_>
        <_>
          26 34 4 6 2.</_></rects>
      <tilted>0</tilted></_>
    <_>
      <rects>
        <_>
          23 36 7 2 -1.</_>
        <_>
          23 37 7 1 2.</_></rects>
      <tilted>0</tilted></_>
    <_>
      <rects>
        <_>
          25 2 5 30 -1.</_>
        <_>
          25 12 5 10 3.</_></rects>
      <tilted>0</tilted></_>
    <_>
      <rects>
        <_>
          25 9 5 30 -1.</_>
        <_>
          25 19 5 10 3.</_></rects>
      <tilted>0</tilted></_>
    <_>
      <rects>
        <_>
          26 0 4 22 -1.</_>
        <_>
          26 11 4 11 2.</_></rects>
      <tilted>0</tilted></_></features></cascade>
</opencv_storage>
