<?xml version="1.0"?>
<opencv_storage>
<cascade>
  <stageType>BOOST</stageType>
  <featureType>HAAR</featureType>
  <height>40</height>
  <width>30</width>
  <stageParams>
    <boostType>GAB</boostType>
    <minHitRate>9.9500000476837158e-01</minHitRate>
    <maxFalseAlarm>5.0000000000000000e-01</maxFalseAlarm>
    <weightTrimRate>9.4999998807907104e-01</weightTrimRate>
    <maxDepth>1</maxDepth>
    <maxWeakCount>100</maxWeakCount></stageParams>
  <featureParams>
    <maxCatCount>0</maxCatCount>
    <featSize>1</featSize>
    <mode>BASIC</mode></featureParams>
  <stageNum>16</stageNum>
  <stages>
    <!-- stage 0 -->
    <_>
      <maxWeakCount>4</maxWeakCount>
      <stageThreshold>-2.0477085113525391e+00</stageThreshold>
      <weakClassifiers>
        <_>
          <internalNodes>
            0 -1 21 -1.3329741358757019e-01</internalNodes>
          <leafValues>
            6.0416668653488159e-01 -9.3077874183654785e-01</leafValues></_>
        <_>
          <internalNodes>
            0 -1 12 -3.5411693155765533e-02</internalNodes>
          <leafValues>
            2.8994029760360718e-01 -9.3484950065612793e-01</leafValues></_>
        <_>
          <internalNodes>
            0 -1 58 2.5002993643283844e-02</internalNodes>
          <leafValues>
            -7.6881241798400879e-01 4.3402689695358276e-01</leafValues></_>
        <_>
          <internalNodes>
            0 -1 31 4.6985023654997349e-03</internalNodes>
          <leafValues>
            -6.1432671546936035e-01 5.8673214912414551e-01</leafValues></_></weakClassifiers></_>
    <!-- stage 1 -->
    <_>
      <maxWeakCount>4</maxWeakCount>
      <stageThreshold>-1.5262930393218994e+00</stageThreshold>
      <weakClassifiers>
        <_>
          <internalNodes>
            0 -1 0 -2.9263496398925781e-01</internalNodes>
          <leafValues>
            6.0583943128585815e-01 -8.8045430183410645e-01</leafValues></_>
        <_>
          <internalNodes>
            0 -1 71 -5.7491049170494080e-02</internalNodes>
          <leafValues>
            4.7529822587966919e-01 -7.2296309471130371e-01</leafValues></_>
        <_>
          <internalNodes>
            0 -1 18 -3.5568714141845703e-02</internalNodes>
          <leafValues>
            4.7429090738296509e-01 -6.6077852249145508e-01</leafValues></_>
        <_>
          <internalNodes>
            0 -1 63 3.8177981972694397e-02</internalNodes>
          <leafValues>
            -3.9716655015945435e-01 8.1227701902389526e-01</leafValues></_></weakClassifiers></_>
    <!-- stage 2 -->
    <_>
      <maxWeakCount>5</maxWeakCount>
      <stageThreshold>-1.6551651954650879e+00</stageThreshold>
      <weakClassifiers>
        <_>
          <internalNodes>
            0 -1 53 5.9738509356975555e-02</internalNodes>
          <leafValues>
            -8.7073606252670288e-01 4.6762588620185852e-01</leafValues></_>
        <_>
          <internalNodes>
            0 -1 1 -1.2866498902440071e-02</internalNodes>
          <leafValues>
            2.0548561215400696e-01 -8.9398205280303955e-01</leafValues></_>
        <_>
          <internalNodes>
            0 -1 34 -1.3714419677853584e-02</internalNodes>
          <leafValues>
            2.9749780893325806e-01 -7.1003973484039307e-01</leafValues></_>
        <_>
          <internalNodes>
            0 -1 46 3.8232521619647741e-03</internalNodes>
          <leafValues>
            -5.4586976766586304e-01 4.6253439784049988e-01</leafValues></_>
        <_>
          <internalNodes>
            0 -1 4 2.8055546863470227e-05</internalNodes>
          <leafValues>
            3.7891140580177307e-01 -7.4154275655746460e-01</leafValues></_></weakClassifiers></_>
    <!-- stage 3 -->
    <_>
      <maxWeakCount>5</maxWeakCount>
      <stageThreshold>-1.7463827133178711e+00</stageThreshold>
      <weakClassifiers>
        <_>
          <internalNodes>
            0 -1 56 -2.2862676531076431e-02</internalNodes>
          <leafValues>
            3.7588652968406677e-01 -8.6458957195281982e-01</leafValues></_>
        <_>
          <internalNodes>
            0 -1 13 -2.3093476891517639e-02</internalNodes>
          <leafValues>
            4.2941644787788391e-01 -7.3578679561614990e-01</leafValues></_>
        <_>
          <internalNodes>
            0 -1 75 -1.6167473047971725e-02</internalNodes>
          <leafValues>
            4.2528456449508667e-01 -6.2833034992218018e-01</leafValues></_>
        <_>
          <internalNodes>
            0 -1 29 -2.7921348810195923e-02</internalNodes>
          <leafValues>
            3.3520787954330444e-01 -7.5364899635314941e-01</leafValues></_>
        <_>
          <internalNodes>
            0 -1 82 8.6688809096813202e-04</internalNodes>
          <leafValues>
            2.8492954373359680e-01 -9.0649878978729248e-01</leafValues></_></weakClassifiers></_>
    <!-- stage 4 -->
    <_>
      <maxWeakCount>6</maxWeakCount>
      <stageThreshold>-1.6802166700363159e+00</stageThreshold>
      <weakClassifiers>
        <_>
          <internalNodes>
            0 -1 60 -1.6453772783279419e-02</internalNodes>
          <leafValues>
            6.9518715143203735e-02 -8.6444854736328125e-01</leafValues></_>
        <_>
          <internalNodes>
            0 -1 24 -8.0674186348915100e-02</internalNodes>
          <leafValues>
            3.2492110133171082e-01 -7.3591625690460205e-01</leafValues></_>
        <_>
          <internalNodes>
            0 -1 50 -2.5243820622563362e-02</internalNodes>
          <leafValues>
            2.8132760524749756e-01 -7.6165413856506348e-01</leafValues></_>
        <_>
          <internalNodes>
            0 -1 27 -3.4274146892130375e-03</internalNodes>
          <leafValues>
            3.8990324735641479e-01 -6.7222321033477783e-01</leafValues></_>
        <_>
          <internalNodes>
            0 -1 9 -1.7016506753861904e-03</internalNodes>
          <leafValues>
            -9.2569518089294434e-01 2.7514657378196716e-01</leafValues></_>
        <_>
          <internalNodes>
            0 -1 83 1.3416098430752754e-02</internalNodes>
          <leafValues>
            1.7461237311363220e-01 -9.5153653621673584e-01</leafValues></_></weakClassifiers></_>
    <!-- stage 5 -->
    <_>
      <maxWeakCount>7</maxWeakCount>
      <stageThreshold>-1.5465193986892700e+00</stageThreshold>
      <weakClassifiers>
        <_>
          <internalNodes>
            0 -1 57 -2.3507270961999893e-02</internalNodes>
          <leafValues>
            1.4942528307437897e-01 -8.6552566289901733e-01</leafValues></_>
        <_>
          <internalNodes>
            0 -1 69 -1.1969719827175140e-01</internalNodes>
          <leafValues>
            2.8744420409202576e-01 -6.9409263134002686e-01</leafValues></_>
        <_>
          <internalNodes>
            0 -1 45 1.1562797427177429e-01</internalNodes>
          <leafValues>
            -3.3323949575424194e-01 8.8489258289337158e-01</leafValues></_>
        <_>
          <internalNodes>
            0 -1 28 -7.3902547592297196e-04</internalNodes>
          <leafValues>
            3.7981644272804260e-01 -6.5863633155822754e-01</leafValues></_>
        <_>
          <internalNodes>
            0 -1 43 3.3474879455752671e-04</internalNodes>
          <leafValues>
            2.1580076217651367e-01 -9.3502235412597656e-01</leafValues></_>
        <_>
          <internalNodes>
            0 -1 5 -5.6993705220520496e-04</internalNodes>
          <leafValues>
            -7.0546424388885498e-01 2.6248583197593689e-01</leafValues></_>
        <_>
          <internalNodes>
            0 -1 39 -1.3024816289544106e-02</internalNodes>
          <leafValues>
            6.7089372873306274e-01 -3.4247839450836182e-01</leafValues></_></weakClassifiers></_>
    <!-- stage 6 -->
    <_>
      <maxWeakCount>5</maxWeakCount>
      <stageThreshold>-1.5693280696868896e+00</stageThreshold>
      <weakClassifiers>
        <_>
          <internalNodes>
            0 -1 59 3.2130971550941467e-02</internalNodes>
          <leafValues>
            -8.2027649879455566e-01 4.5945945382118225e-01</leafValues></_>
        <_>
          <internalNodes>
            0 -1 26 -9.2643894255161285e-02</internalNodes>
          <leafValues>
            2.3209285736083984e-01 -7.0673590898513794e-01</leafValues></_>
        <_>
          <internalNodes>
            0 -1 68 -6.2380107119679451e-03</internalNodes>
          <leafValues>
            3.3910849690437317e-01 -7.2262781858444214e-01</leafValues></_>
        <_>
          <internalNodes>
            0 -1 74 -6.3413539901375771e-03</internalNodes>
          <leafValues>
            4.8960560560226440e-01 -5.1582837104797363e-01</leafValues></_>
        <_>
          <internalNodes>
            0 -1 79 2.7074767276644707e-03</internalNodes>
          <leafValues>
            2.5731179118156433e-01 -9.6377569437026978e-01</leafValues></_></weakClassifiers></_>
    <!-- stage 7 -->
    <_>
      <maxWeakCount>6</maxWeakCount>
      <stageThreshold>-1.5048904418945313e+00</stageThreshold>
      <weakClassifiers>
        <_>
          <internalNodes>
            0 -1 47 -2.0162787288427353e-02</internalNodes>
          <leafValues>
            -1.0599078238010406e-01 -8.5812932252883911e-01</leafValues></_>
        <_>
          <internalNodes>
            0 -1 76 3.9619179442524910e-03</internalNodes>
          <leafValues>
            -8.2390594482421875e-01 5.6178078055381775e-02</leafValues></_>
        <_>
          <internalNodes>
            0 -1 33 -9.9792433902621269e-03</internalNodes>
          <leafValues>
            2.8186053037643433e-01 -6.9729566574096680e-01</leafValues></_>
        <_>
          <internalNodes>
            0 -1 41 1.6213863273151219e-04</internalNodes>
          <leafValues>
            2.2594465315341949e-01 -8.6319106817245483e-01</leafValues></_>
        <_>
          <internalNodes>
            0 -1 2 1.3800512999296188e-02</internalNodes>
          <leafValues>
            -5.1754701137542725e-01 3.8910818099975586e-01</leafValues></_>
        <_>
          <internalNodes>
            0 -1 36 8.4927352145314217e-03</internalNodes>
          <leafValues>
            -4.9396213889122009e-01 4.6843931078910828e-01</leafValues></_></weakClassifiers></_>
    <!-- stage 8 -->
    <_>
      <maxWeakCount>5</maxWeakCount>
      <stageThreshold>-1.6267029047012329e+00</stageThreshold>
      <weakClassifiers>
        <_>
          <internalNodes>
            0 -1 54 -4.4779360294342041e-02</internalNodes>
          <leafValues>
            2.0000000298023224e-01 -8.2456141710281372e-01</leafValues></_>
        <_>
          <internalNodes>
            0 -1 37 -2.5305293500423431e-02</internalNodes>
          <leafValues>
            3.4341615438461304e-01 -6.4256244897842407e-01</leafValues></_>
        <_>
          <internalNodes>
            0 -1 72 -3.5198060795664787e-03</internalNodes>
          <leafValues>
            3.8021692633628845e-01 -5.9389978647232056e-01</leafValues></_>
        <_>
          <internalNodes>
            0 -1 8 6.0188700444996357e-04</internalNodes>
          <leafValues>
            2.2242285311222076e-01 -9.4921582937240601e-01</leafValues></_>
        <_>
          <internalNodes>
            0 -1 44 1.4070425095269457e-05</internalNodes>
          <leafValues>
            -8.6848896741867065e-01 2.1189783513545990e-01</leafValues></_></weakClassifiers></_>
    <!-- stage 9 -->
    <_>
      <maxWeakCount>6</maxWeakCount>
      <stageThreshold>-2.1400129795074463e+00</stageThreshold>
      <weakClassifiers>
        <_>
          <internalNodes>
            0 -1 6 -1.9944523274898529e-01</internalNodes>
          <leafValues>
            6.9491523504257202e-01 -8.1724727153778076e-01</leafValues></_>
        <_>
          <internalNodes>
            0 -1 19 -4.4439109042286873e-03</internalNodes>
          <leafValues>
            1.5998350083827972e-01 -7.9267454147338867e-01</leafValues></_>
        <_>
          <internalNodes>
            0 -1 55 -1.4377634972333908e-02</internalNodes>
          <leafValues>
            4.8345637321472168e-01 -5.0319868326187134e-01</leafValues></_>
        <_>
          <internalNodes>
            0 -1 80 1.0049132397398353e-03</internalNodes>
          <leafValues>
            3.7926214933395386e-01 -7.0381957292556763e-01</leafValues></_>
        <_>
          <internalNodes>
            0 -1 10 -2.4574695271439850e-04</internalNodes>
          <leafValues>
            3.6812376976013184e-01 -6.4288556575775146e-01</leafValues></_>
        <_>
          <internalNodes>
            0 -1 15 -1.1030375026166439e-02</internalNodes>
          <leafValues>
            -9.5981973409652710e-01 2.3673093318939209e-01</leafValues></_></weakClassifiers></_>
    <!-- stage 10 -->
    <_>
      <maxWeakCount>5</maxWeakCount>
      <stageThreshold>-1.6526722908020020e+00</stageThreshold>
      <weakClassifiers>
        <_>
          <internalNodes>
            0 -1 38 -7.0157060399651527e-03</internalNodes>
          <leafValues>
            7.6023392379283905e-02 -8.5600978136062622e-01</leafValues></_>
        <_>
          <internalNodes>
            0 -1 16 -9.4183249166235328e-04</internalNodes>
          <leafValues>
            1.2223432213068008e-01 -8.8887476921081543e-01</leafValues></_>
        <_>
          <internalNodes>
            0 -1 52 6.7787629086524248e-04</internalNodes>
          <leafValues>
            -5.3587192296981812e-01 4.7228917479515076e-01</leafValues></_>
        <_>
          <internalNodes>
            0 -1 35 -1.1185035109519958e-03</internalNodes>
          <leafValues>
            3.0333909392356873e-01 -8.3124649524688721e-01</leafValues></_>
        <_>
          <internalNodes>
            0 -1 64 -1.0379714891314507e-02</internalNodes>
          <leafValues>
            4.4822156429290771e-01 -4.8100033402442932e-01</leafValues></_></weakClassifiers></_>
    <!-- stage 11 -->
    <_>
      <maxWeakCount>7</maxWeakCount>
      <stageThreshold>-2.1323161125183105e+00</stageThreshold>
      <weakClassifiers>
        <_>
          <internalNodes>
            0 -1 61 6.2242429703474045e-03</internalNodes>
          <leafValues>
            -8.5207456350326538e-01 1.8367347121238708e-01</leafValues></_>
        <_>
          <internalNodes>
            0 -1 48 6.6127651371061802e-04</internalNodes>
          <leafValues>
            -6.4694976806640625e-01 2.8418439626693726e-01</leafValues></_>
        <_>
          <internalNodes>
            0 -1 11 3.0311429873108864e-04</internalNodes>
          <leafValues>
            1.7163784801959991e-01 -9.2416161298751831e-01</leafValues></_>
        <_>
          <internalNodes>
            0 -1 14 -2.0870732259936631e-04</internalNodes>
          <leafValues>
            3.4044197201728821e-01 -5.9391278028488159e-01</leafValues></_>
        <_>
          <internalNodes>
            0 -1 62 -2.1817450760863721e-04</internalNodes>
          <leafValues>
            -7.4642974138259888e-01 3.0697852373123169e-01</leafValues></_>
        <_>
          <internalNodes>
            0 -1 73 -3.4691803157329559e-03</internalNodes>
          <leafValues>
            3.3691942691802979e-01 -6.6806298494338989e-01</leafValues></_>
        <_>
          <internalNodes>
            0 -1 30 -1.3926921412348747e-02</internalNodes>
          <leafValues>
            2.6912108063697815e-01 -8.5805690288543701e-01</leafValues></_></weakClassifiers></_>
    <!-- stage 12 -->
    <_>
      <maxWeakCount>6</maxWeakCount>
      <stageThreshold>-1.5870885848999023e+00</stageThreshold>
      <weakClassifiers>
        <_>
          <internalNodes>
            0 -1 32 1.3740554451942444e-01</internalNodes>
          <leafValues>
            -8.3838385343551636e-01 1.6535432636737823e-01</leafValues></_>
        <_>
          <internalNodes>
            0 -1 51 5.2541829645633698e-03</internalNodes>
          <leafValues>
            -6.5213268995285034e-01 3.5435521602630615e-01</leafValues></_>
        <_>
          <internalNodes>
            0 -1 20 -3.5636432003229856e-03</internalNodes>
          <leafValues>
            4.1267091035842896e-01 -6.0574209690093994e-01</leafValues></_>
        <_>
          <internalNodes>
            0 -1 81 -2.6932237669825554e-02</internalNodes>
          <leafValues>
            -9.3343091011047363e-01 2.1380817890167236e-01</leafValues></_>
        <_>
          <internalNodes>
            0 -1 78 1.0277947876602411e-03</internalNodes>
          <leafValues>
            3.3845773339271545e-01 -8.5172116756439209e-01</leafValues></_>
        <_>
          <internalNodes>
            0 -1 23 -4.6740451944060624e-04</internalNodes>
          <leafValues>
            -9.3380928039550781e-01 1.2866999208927155e-01</leafValues></_></weakClassifiers></_>
    <!-- stage 13 -->
    <_>
      <maxWeakCount>5</maxWeakCount>
      <stageThreshold>-1.8569180965423584e+00</stageThreshold>
      <weakClassifiers>
        <_>
          <internalNodes>
            0 -1 42 4.0135473012924194e-02</internalNodes>
          <leafValues>
            -8.2454127073287964e-01 7.2727274894714355e-01</leafValues></_>
        <_>
          <internalNodes>
            0 -1 25 6.2537170015275478e-04</internalNodes>
          <leafValues>
            7.8819163143634796e-02 -8.3029723167419434e-01</leafValues></_>
        <_>
          <internalNodes>
            0 -1 22 7.4821163434535265e-04</internalNodes>
          <leafValues>
            -7.2846841812133789e-01 2.8710135817527771e-01</leafValues></_>
        <_>
          <internalNodes>
            0 -1 17 2.9393297154456377e-04</internalNodes>
          <leafValues>
            2.6880234479904175e-01 -7.9954081773757935e-01</leafValues></_>
        <_>
          <internalNodes>
            0 -1 49 3.5545846913009882e-03</internalNodes>
          <leafValues>
            2.5758656859397888e-01 -9.6080869436264038e-01</leafValues></_></weakClassifiers></_>
    <!-- stage 14 -->
    <_>
      <maxWeakCount>3</maxWeakCount>
      <stageThreshold>-1.1864736080169678e+00</stageThreshold>
      <weakClassifiers>
        <_>
          <internalNodes>
            0 -1 66 2.5651820003986359e-02</internalNodes>
          <leafValues>
            -8.6658656597137451e-01 3.5616439580917358e-01</leafValues></_>
        <_>
          <internalNodes>
            0 -1 65 -2.4809343740344048e-02</internalNodes>
          <leafValues>
            6.3284581899642944e-01 -6.4475685358047485e-01</leafValues></_>
        <_>
          <internalNodes>
            0 -1 7 2.2059494222048670e-04</internalNodes>
          <leafValues>
            3.6655208468437195e-01 -8.9788115024566650e-01</leafValues></_></weakClassifiers></_>
    <!-- stage 15 -->
    <_>
      <maxWeakCount>5</maxWeakCount>
      <stageThreshold>-1.4843111038208008e+00</stageThreshold>
      <weakClassifiers>
        <_>
          <internalNodes>
            0 -1 3 -1.1575861275196075e-01</internalNodes>
          <leafValues>
            1. -8.4757506847381592e-01</leafValues></_>
        <_>
          <internalNodes>
            0 -1 67 1.8288297578692436e-02</internalNodes>
          <leafValues>
            -7.5502973794937134e-01 5.3675454854965210e-01</leafValues></_>
        <_>
          <internalNodes>
            0 -1 40 -4.5635446440428495e-04</internalNodes>
          <leafValues>
            -8.9290970563888550e-01 3.3588033914566040e-01</leafValues></_>
        <_>
          <internalNodes>
            0 -1 70 -5.5381876882165670e-04</internalNodes>
          <leafValues>
            5.7626730203628540e-01 -6.1719441413879395e-01</leafValues></_>
        <_>
          <internalNodes>
            0 -1 77 3.0080371652729809e-04</internalNodes>
          <leafValues>
            4.3493616580963135e-01 -7.5741046667098999e-01</leafValues></_></weakClassifiers></_></stages>
  <features>
    <_>
      <rects>
        <_>
          0 0 18 38 -1.</_>
        <_>
          6 0 6 38 3.</_></rects>
      <tilted>0</tilted></_>
    <_>
      <rects>
        <_>
          0 0 30 4 -1.</_>
        <_>
          10 0 10 4 3.</_></rects>
      <tilted>0</tilted></_>
    <_>
      <rects>
        <_>
          0 0 20 10 -1.</_>
        <_>
          0 0 10 5 2.</_>
        <_>
          10 5 10 5 2.</_></rects>
      <tilted>0</tilted></_>
    <_>
      <rects>
        <_>
          0 1 12 37 -1.</_>
        <_>
          4 1 4 37 3.</_></rects>
      <tilted>0</tilted></_>
    <_>
      <rects>
        <_>
          0 2 1 34 -1.</_>
        <_>
          0 19 1 17 2.</_></rects>
      <tilted>0</tilted></_>
    <_>
      <rects>
        <_>
          0 3 1 24 -1.</_>
        <_>
          0 11 1 8 3.</_></rects>
      <tilted>0</tilted></_>
    <_>
      <rects>
        <_>
          0 5 26 20 -1.</_>
        <_>
          0 15 26 10 2.</_></rects>
      <tilted>0</tilted></_>
    <_>
      <rects>
        <_>
          0 8 6 4 -1.</_>
        <_>
          0 10 6 2 2.</_></rects>
      <tilted>0</tilted></_>
    <_>
      <rects>
        <_>
          0 9 1 15 -1.</_>
        <_>
          0 14 1 5 3.</_></rects>
      <tilted>0</tilted></_>
    <_>
      <rects>
        <_>
          0 10 1 18 -1.</_>
        <_>
          0 19 1 9 2.</_></rects>
      <tilted>0</tilted></_>
    <_>
      <rects>
        <_>
          0 14 1 26 -1.</_>
        <_>
          0 27 1 13 2.</_></rects>
      <tilted>0</tilted></_>
    <_>
      <rects>
        <_>
          0 15 1 6 -1.</_>
        <_>
          0 18 1 3 2.</_></rects>
      <tilted>0</tilted></_>
    <_>
      <rects>
        <_>
          0 18 20 22 -1.</_>
        <_>
          0 18 10 11 2.</_>
        <_>
          10 29 10 11 2.</_></rects>
      <tilted>0</tilted></_>
    <_>
      <rects>
        <_>
          0 20 8 10 -1.</_>
        <_>
          4 20 4 10 2.</_></rects>
      <tilted>0</tilted></_>
    <_>
      <rects>
        <_>
          0 22 1 18 -1.</_>
        <_>
          0 31 1 9 2.</_></rects>
      <tilted>0</tilted></_>
    <_>
      <rects>
        <_>
          0 22 7 12 -1.</_>
        <_>
          0 28 7 6 2.</_></rects>
      <tilted>0</tilted></_>
    <_>
      <rects>
        <_>
          0 25 12 1 -1.</_>
        <_>
          6 25 6 1 2.</_></rects>
      <tilted>0</tilted></_>
    <_>
      <rects>
        <_>
          0 27 3 9 -1.</_>
        <_>
          0 30 3 3 3.</_></rects>
      <tilted>0</tilted></_>
    <_>
      <rects>
        <_>
          0 31 14 9 -1.</_>
        <_>
          7 31 7 9 2.</_></rects>
      <tilted>0</tilted></_>
    <_>
      <rects>
        <_>
          0 39 22 1 -1.</_>
        <_>
          11 39 11 1 2.</_></rects>
      <tilted>0</tilted></_>
    <_>
      <rects>
        <_>
          1 0 29 4 -1.</_>
        <_>
          1 2 29 2 2.</_></rects>
      <tilted>0</tilted></_>
    <_>
      <rects>
        <_>
          1 4 15 32 -1.</_>
        <_>
          6 4 5 32 3.</_></rects>
      <tilted>0</tilted></_>
    <_>
      <rects>
        <_>
          1 5 18 4 -1.</_>
        <_>
          1 5 9 2 2.</_>
        <_>
          10 7 9 2 2.</_></rects>
      <tilted>0</tilted></_>
    <_>
      <rects>
        <_>
          1 9 1 8 -1.</_>
        <_>
          1 13 1 4 2.</_></rects>
      <tilted>0</tilted></_>
    <_>
      <rects>
        <_>
          1 19 15 17 -1.</_>
        <_>
          6 19 5 17 3.</_></rects>
      <tilted>0</tilted></_>
    <_>
      <rects>
        <_>
          1 19 8 4 -1.</_>
        <_>
          1 21 8 2 2.</_></rects>
      <tilted>0</tilted></_>
    <_>
      <rects>
        <_>
          2 2 12 38 -1.</_>
        <_>
          6 2 4 38 3.</_></rects>
      <tilted>0</tilted></_>
    <_>
      <rects>
        <_>
          3 0 21 9 -1.</_>
        <_>
          3 3 21 3 3.</_></rects>
      <tilted>0</tilted></_>
    <_>
      <rects>
        <_>
          3 4 8 12 -1.</_>
        <_>
          3 10 8 6 2.</_></rects>
      <tilted>0</tilted></_>
    <_>
      <rects>
        <_>
          3 14 18 26 -1.</_>
        <_>
          3 14 9 13 2.</_>
        <_>
          12 27 9 13 2.</_></rects>
      <tilted>0</tilted></_>
    <_>
      <rects>
        <_>
          3 24 18 14 -1.</_>
        <_>
          3 24 9 7 2.</_>
        <_>
          12 31 9 7 2.</_></rects>
      <tilted>0</tilted></_>
    <_>
      <rects>
        <_>
          3 24 19 6 -1.</_>
        <_>
          3 26 19 2 3.</_></rects>
      <tilted>0</tilted></_>
    <_>
      <rects>
        <_>
          4 0 21 18 -1.</_>
        <_>
          4 6 21 6 3.</_></rects>
      <tilted>0</tilted></_>
    <_>
      <rects>
        <_>
          4 25 12 6 -1.</_>
        <_>
          8 25 4 6 3.</_></rects>
      <tilted>0</tilted></_>
    <_>
      <rects>
        <_>
          4 27 26 12 -1.</_>
        <_>
          4 31 26 4 3.</_></rects>
      <tilted>0</tilted></_>
    <_>
      <rects>
        <_>
          6 34 24 2 -1.</_>
        <_>
          14 34 8 2 3.</_></rects>
      <tilted>0</tilted></_>
    <_>
      <rects>
        <_>
          8 5 12 20 -1.</_>
        <_>
          8 15 12 10 2.</_></rects>
      <tilted>0</tilted></_>
    <_>
      <rects>
        <_>
          8 6 9 25 -1.</_>
        <_>
          11 6 3 25 3.</_></rects>
      <tilted>0</tilted></_>
    <_>
      <rects>
        <_>
          8 13 13 6 -1.</_>
        <_>
          8 15 13 2 3.</_></rects>
      <tilted>0</tilted></_>
    <_>
      <rects>
        <_>
          8 17 12 9 -1.</_>
        <_>
          8 20 12 3 3.</_></rects>
      <tilted>0</tilted></_>
    <_>
      <rects>
        <_>
          8 24 2 4 -1.</_>
        <_>
          8 26 2 2 2.</_></rects>
      <tilted>0</tilted></_>
    <_>
      <rects>
        <_>
          8 24 2 10 -1.</_>
        <_>
          8 29 2 5 2.</_></rects>
      <tilted>0</tilted></_>
    <_>
      <rects>
        <_>
          8 26 12 5 -1.</_>
        <_>
          12 26 4 5 3.</_></rects>
      <tilted>0</tilted></_>
    <_>
      <rects>
        <_>
          8 36 6 3 -1.</_>
        <_>
          11 36 3 3 2.</_></rects>
      <tilted>0</tilted></_>
    <_>
      <rects>
        <_>
          9 19 4 4 -1.</_>
        <_>
          11 19 2 4 2.</_></rects>
      <tilted>0</tilted></_>
    <_>
      <rects>
        <_>
          10 1 14 18 -1.</_>
        <_>
          10 7 14 6 3.</_></rects>
      <tilted>0</tilted></_>
    <_>
      <rects>
        <_>
          10 7 4 17 -1.</_>
        <_>
          12 7 2 17 2.</_></rects>
      <tilted>0</tilted></_>
    <_>
      <rects>
        <_>
          10 20 12 9 -1.</_>
        <_>
          10 23 12 3 3.</_></rects>
      <tilted>0</tilted></_>
    <_>
      <rects>
        <_>
          10 24 16 3 -1.</_>
        <_>
          10 25 16 1 3.</_></rects>
      <tilted>0</tilted></_>
    <_>
      <rects>
        <_>
          10 34 15 4 -1.</_>
        <_>
          15 34 5 4 3.</_></rects>
      <tilted>0</tilted></_>
    <_>
      <rects>
        <_>
          11 22 9 16 -1.</_>
        <_>
          11 30 9 8 2.</_></rects>
      <tilted>0</tilted></_>
    <_>
      <rects>
        <_>
          11 24 18 6 -1.</_>
        <_>
          11 26 18 2 3.</_></rects>
      <tilted>0</tilted></_>
    <_>
      <rects>
        <_>
          11 25 9 3 -1.</_>
        <_>
          11 26 9 1 3.</_></rects>
      <tilted>0</tilted></_>
    <_>
      <rects>
        <_>
          12 7 9 23 -1.</_>
        <_>
          15 7 3 23 3.</_></rects>
      <tilted>0</tilted></_>
    <_>
      <rects>
        <_>
          12 17 12 15 -1.</_>
        <_>
          16 17 4 15 3.</_></rects>
      <tilted>0</tilted></_>
    <_>
      <rects>
        <_>
          12 18 9 12 -1.</_>
        <_>
          12 22 9 4 3.</_></rects>
      <tilted>0</tilted></_>
    <_>
      <rects>
        <_>
          12 19 8 9 -1.</_>
        <_>
          12 22 8 3 3.</_></rects>
      <tilted>0</tilted></_>
    <_>
      <rects>
        <_>
          12 19 9 9 -1.</_>
        <_>
          12 22 9 3 3.</_></rects>
      <tilted>0</tilted></_>
    <_>
      <rects>
        <_>
          12 24 18 16 -1.</_>
        <_>
          12 24 9 8 2.</_>
        <_>
          21 32 9 8 2.</_></rects>
      <tilted>0</tilted></_>
    <_>
      <rects>
        <_>
          13 13 8 9 -1.</_>
        <_>
          13 16 8 3 3.</_></rects>
      <tilted>0</tilted></_>
    <_>
      <rects>
        <_>
          13 18 7 9 -1.</_>
        <_>
          13 21 7 3 3.</_></rects>
      <tilted>0</tilted></_>
    <_>
      <rects>
        <_>
          13 26 5 6 -1.</_>
        <_>
          13 28 5 2 3.</_></rects>
      <tilted>0</tilted></_>
    <_>
      <rects>
        <_>
          13 36 8 1 -1.</_>
        <_>
          17 36 4 1 2.</_></rects>
      <tilted>0</tilted></_>
    <_>
      <rects>
        <_>
          14 0 6 12 -1.</_>
        <_>
          14 6 6 6 2.</_></rects>
      <tilted>0</tilted></_>
    <_>
      <rects>
        <_>
          14 3 8 20 -1.</_>
        <_>
          14 3 4 10 2.</_>
        <_>
          18 13 4 10 2.</_></rects>
      <tilted>0</tilted></_>
    <_>
      <rects>
        <_>
          14 5 9 28 -1.</_>
        <_>
          17 5 3 28 3.</_></rects>
      <tilted>0</tilted></_>
    <_>
      <rects>
        <_>
          14 8 6 31 -1.</_>
        <_>
          16 8 2 31 3.</_></rects>
      <tilted>0</tilted></_>
    <_>
      <rects>
        <_>
          14 10 6 21 -1.</_>
        <_>
          16 10 2 21 3.</_></rects>
      <tilted>0</tilted></_>
    <_>
      <rects>
        <_>
          14 28 16 12 -1.</_>
        <_>
          14 32 16 4 3.</_></rects>
      <tilted>0</tilted></_>
    <_>
      <rects>
        <_>
          15 9 15 30 -1.</_>
        <_>
          20 9 5 30 3.</_></rects>
      <tilted>0</tilted></_>
    <_>
      <rects>
        <_>
          15 9 6 12 -1.</_>
        <_>
          15 13 6 4 3.</_></rects>
      <tilted>0</tilted></_>
    <_>
      <rects>
        <_>
          15 17 15 14 -1.</_>
        <_>
          20 17 5 14 3.</_></rects>
      <tilted>0</tilted></_>
    <_>
      <rects>
        <_>
          16 15 11 18 -1.</_>
        <_>
          16 21 11 6 3.</_></rects>
      <tilted>0</tilted></_>
    <_>
      <rects>
        <_>
          16 15 12 18 -1.</_>
        <_>
          16 21 12 6 3.</_></rects>
      <tilted>0</tilted></_>
    <_>
      <rects>
        <_>
          18 0 12 8 -1.</_>
        <_>
          18 0 6 4 2.</_>
        <_>
          24 4 6 4 2.</_></rects>
      <tilted>0</tilted></_>
    <_>
      <rects>
        <_>
          18 18 12 14 -1.</_>
        <_>
          22 18 4 14 3.</_></rects>
      <tilted>0</tilted></_>
    <_>
      <rects>
        <_>
          20 31 10 9 -1.</_>
        <_>
          25 31 5 9 2.</_></rects>
      <tilted>0</tilted></_>
    <_>
      <rects>
        <_>
          20 36 4 1 -1.</_>
        <_>
          22 36 2 1 2.</_></rects>
      <tilted>0</tilted></_>
    <_>
      <rects>
        <_>
          23 15 6 24 -1.</_>
        <_>
          23 23 6 8 3.</_></rects>
      <tilted>0</tilted></_>
    <_>
      <rects>
        <_>
          23 23 4 12 -1.</_>
        <_>
          23 27 4 4 3.</_></rects>
      <tilted>0</tilted></_>
    <_>
      <rects>
        <_>
          24 0 5 39 -1.</_>
        <_>
          24 13 5 13 3.</_></rects>
      <tilted>0</tilted></_>
    <_>
      <rects>
        <_>
          24 14 6 24 -1.</_>
        <_>
          24 22 6 8 3.</_></rects>
      <tilted>0</tilted></_>
    <_>
      <rects>
        <_>
          26 18 4 12 -1.</_>
        <_>
          26 22 4 4 3.</_></rects>
      <tilted>0</tilted></_>
    <_>
      <rects>
        <_>
          27 1 3 36 -1.</_>
        <_>
          27 13 3 12 3.</_></rects>
      <tilted>0</tilted></_></features></cascade>
</opencv_storage>
