<?xml version="1.0"?>
<opencv_storage>
<cascade>
  <stageType>BOOST</stageType>
  <featureType>HAAR</featureType>
  <height>40</height>
  <width>30</width>
  <stageParams>
    <boostType>GAB</boostType>
    <minHitRate>9.9500000476837158e-01</minHitRate>
    <maxFalseAlarm>5.0000000000000000e-01</maxFalseAlarm>
    <weightTrimRate>9.4999998807907104e-01</weightTrimRate>
    <maxDepth>1</maxDepth>
    <maxWeakCount>100</maxWeakCount></stageParams>
  <featureParams>
    <maxCatCount>0</maxCatCount>
    <featSize>1</featSize>
    <mode>BASIC</mode></featureParams>
  <stageNum>10</stageNum>
  <stages>
    <!-- stage 0 -->
    <_>
      <maxWeakCount>2</maxWeakCount>
      <stageThreshold>-6.2496874481439590e-02</stageThreshold>
      <weakClassifiers>
        <_>
          <internalNodes>
            0 -1 1 -3.7293100357055664e-01</internalNodes>
          <leafValues>
            8.8235294818878174e-01 -9.7660821676254272e-01</leafValues></_>
        <_>
          <internalNodes>
            0 -1 18 -1.0007932782173157e-01</internalNodes>
          <leafValues>
            9.5569103956222534e-01 -9.4484978914260864e-01</leafValues></_></weakClassifiers></_>
    <!-- stage 1 -->
    <_>
      <maxWeakCount>3</maxWeakCount>
      <stageThreshold>-1.2341482639312744e+00</stageThreshold>
      <weakClassifiers>
        <_>
          <internalNodes>
            0 -1 9 -8.3362340927124023e-02</internalNodes>
          <leafValues>
            6.2616825103759766e-01 -9.4094491004943848e-01</leafValues></_>
        <_>
          <internalNodes>
            0 -1 7 -1.8728669732809067e-02</internalNodes>
          <leafValues>
            7.7222388982772827e-01 -8.9613509178161621e-01</leafValues></_>
        <_>
          <internalNodes>
            0 -1 3 -5.5948093533515930e-02</internalNodes>
          <leafValues>
            6.8877446651458740e-01 -9.6418142318725586e-01</leafValues></_></weakClassifiers></_>
    <!-- stage 2 -->
    <_>
      <maxWeakCount>3</maxWeakCount>
      <stageThreshold>-1.4314754009246826e+00</stageThreshold>
      <weakClassifiers>
        <_>
          <internalNodes>
            0 -1 15 2.3076552897691727e-02</internalNodes>
          <leafValues>
            -9.4810378551483154e-01 5.6140351295471191e-01</leafValues></_>
        <_>
          <internalNodes>
            0 -1 21 1.0231956094503403e-01</internalNodes>
          <leafValues>
            -9.0431767702102661e-01 6.3020861148834229e-01</leafValues></_>
        <_>
          <internalNodes>
            0 -1 6 -1.3848727568984032e-02</internalNodes>
          <leafValues>
            4.2094606161117554e-01 -9.4904780387878418e-01</leafValues></_></weakClassifiers></_>
    <!-- stage 3 -->
    <_>
      <maxWeakCount>3</maxWeakCount>
      <stageThreshold>-1.3113151788711548e+00</stageThreshold>
      <weakClassifiers>
        <_>
          <internalNodes>
            0 -1 5 -6.5108460187911987e-01</internalNodes>
          <leafValues>
            5.3061223030090332e-01 -8.9555126428604126e-01</leafValues></_>
        <_>
          <internalNodes>
            0 -1 13 -2.5702603161334991e-02</internalNodes>
          <leafValues>
            5.3362405300140381e-01 -8.8053303956985474e-01</leafValues></_>
        <_>
          <internalNodes>
            0 -1 2 -4.7658332623541355e-03</internalNodes>
          <leafValues>
            5.2833855152130127e-01 -9.4938790798187256e-01</leafValues></_></weakClassifiers></_>
    <!-- stage 4 -->
    <_>
      <maxWeakCount>3</maxWeakCount>
      <stageThreshold>-1.1325803995132446e+00</stageThreshold>
      <weakClassifiers>
        <_>
          <internalNodes>
            0 -1 16 -2.3376265168190002e-01</internalNodes>
          <leafValues>
            5.0000000000000000e-01 -8.9514565467834473e-01</leafValues></_>
        <_>
          <internalNodes>
            0 -1 25 2.0962103735655546e-03</internalNodes>
          <leafValues>
            -8.6597788333892822e-01 6.4838522672653198e-01</leafValues></_>
        <_>
          <internalNodes>
            0 -1 0 -3.7082821130752563e-02</internalNodes>
          <leafValues>
            6.2854313850402832e-01 -8.7318593263626099e-01</leafValues></_></weakClassifiers></_>
    <!-- stage 5 -->
    <_>
      <maxWeakCount>2</maxWeakCount>
      <stageThreshold>-4.5484715700149536e-01</stageThreshold>
      <weakClassifiers>
        <_>
          <internalNodes>
            0 -1 17 -1.9349408149719238e-01</internalNodes>
          <leafValues>
            6.9767439365386963e-01 -8.9035916328430176e-01</leafValues></_>
        <_>
          <internalNodes>
            0 -1 14 1.0452197864651680e-02</internalNodes>
          <leafValues>
            -9.9476057291030884e-01 4.3551200628280640e-01</leafValues></_></weakClassifiers></_>
    <!-- stage 6 -->
    <_>
      <maxWeakCount>3</maxWeakCount>
      <stageThreshold>-8.5011261701583862e-01</stageThreshold>
      <weakClassifiers>
        <_>
          <internalNodes>
            0 -1 4 -2.8789860010147095e-01</internalNodes>
          <leafValues>
            7.7499997615814209e-01 -8.8411217927932739e-01</leafValues></_>
        <_>
          <internalNodes>
            0 -1 11 -2.8577171266078949e-02</internalNodes>
          <leafValues>
            8.1752943992614746e-01 -7.9206728935241699e-01</leafValues></_>
        <_>
          <internalNodes>
            0 -1 19 -5.0001468509435654e-02</internalNodes>
          <leafValues>
            8.2606685161590576e-01 -7.7545291185379028e-01</leafValues></_></weakClassifiers></_>
    <!-- stage 7 -->
    <_>
      <maxWeakCount>3</maxWeakCount>
      <stageThreshold>-1.0886100530624390e+00</stageThreshold>
      <weakClassifiers>
        <_>
          <internalNodes>
            0 -1 26 3.3685909584164619e-03</internalNodes>
          <leafValues>
            -9.1634982824325562e-01 7.9775279760360718e-01</leafValues></_>
        <_>
          <internalNodes>
            0 -1 12 -5.0590455532073975e-02</internalNodes>
          <leafValues>
            8.6558932065963745e-01 -8.8391304016113281e-01</leafValues></_>
        <_>
          <internalNodes>
            0 -1 20 4.0538690984249115e-02</internalNodes>
          <leafValues>
            -9.7733402252197266e-01 7.1165275573730469e-01</leafValues></_></weakClassifiers></_>
    <!-- stage 8 -->
    <_>
      <maxWeakCount>3</maxWeakCount>
      <stageThreshold>-1.2977775335311890e+00</stageThreshold>
      <weakClassifiers>
        <_>
          <internalNodes>
            0 -1 10 3.9184361696243286e-02</internalNodes>
          <leafValues>
            -9.5686274766921997e-01 7.3333334922790527e-01</leafValues></_>
        <_>
          <internalNodes>
            0 -1 24 -7.0242531364783645e-05</internalNodes>
          <leafValues>
            5.2015608549118042e-01 -9.0271544456481934e-01</leafValues></_>
        <_>
          <internalNodes>
            0 -1 22 -2.1466214209794998e-02</internalNodes>
          <leafValues>
            6.8255233764648438e-01 -8.6107087135314941e-01</leafValues></_></weakClassifiers></_>
    <!-- stage 9 -->
    <_>
      <maxWeakCount>2</maxWeakCount>
      <stageThreshold>1.1627906933426857e-02</stageThreshold>
      <weakClassifiers>
        <_>
          <internalNodes>
            0 -1 23 3.5398779436945915e-04</internalNodes>
          <leafValues>
            1. -9.8837208747863770e-01</leafValues></_>
        <_>
          <internalNodes>
            0 -1 8 5.2518455777317286e-04</internalNodes>
          <leafValues>
            1. -9.8470366001129150e-01</leafValues></_></weakClassifiers></_></stages>
  <features>
    <_>
      <rects>
        <_>
          0 0 8 20 -1.</_>
        <_>
          4 0 4 20 2.</_></rects>
      <tilted>0</tilted></_>
    <_>
      <rects>
        <_>
          0 0 27 38 -1.</_>
        <_>
          9 0 9 38 3.</_></rects>
      <tilted>0</tilted></_>
    <_>
      <rects>
        <_>
          0 0 26 4 -1.</_>
        <_>
          0 2 26 2 2.</_></rects>
      <tilted>0</tilted></_>
    <_>
      <rects>
        <_>
          0 0 26 21 -1.</_>
        <_>
          0 7 26 7 3.</_></rects>
      <tilted>0</tilted></_>
    <_>
      <rects>
        <_>
          0 3 30 15 -1.</_>
        <_>
          10 3 10 15 3.</_></rects>
      <tilted>0</tilted></_>
    <_>
      <rects>
        <_>
          0 3 30 37 -1.</_>
        <_>
          10 3 10 37 3.</_></rects>
      <tilted>0</tilted></_>
    <_>
      <rects>
        <_>
          0 9 27 15 -1.</_>
        <_>
          0 14 27 5 3.</_></rects>
      <tilted>0</tilted></_>
    <_>
      <rects>
        <_>
          0 27 18 8 -1.</_>
        <_>
          0 27 9 4 2.</_>
        <_>
          9 31 9 4 2.</_></rects>
      <tilted>0</tilted></_>
    <_>
      <rects>
        <_>
          0 34 3 6 -1.</_>
        <_>
          0 36 3 2 3.</_></rects>
      <tilted>0</tilted></_>
    <_>
      <rects>
        <_>
          2 18 12 17 -1.</_>
        <_>
          6 18 4 17 3.</_></rects>
      <tilted>0</tilted></_>
    <_>
      <rects>
        <_>
          2 32 25 8 -1.</_>
        <_>
          2 36 25 4 2.</_></rects>
      <tilted>0</tilted></_>
    <_>
      <rects>
        <_>
          2 37 16 3 -1.</_>
        <_>
          10 37 8 3 2.</_></rects>
      <tilted>0</tilted></_>
    <_>
      <rects>
        <_>
          3 19 12 13 -1.</_>
        <_>
          7 19 4 13 3.</_></rects>
      <tilted>0</tilted></_>
    <_>
      <rects>
        <_>
          6 18 8 22 -1.</_>
        <_>
          6 18 4 11 2.</_>
        <_>
          10 29 4 11 2.</_></rects>
      <tilted>0</tilted></_>
    <_>
      <rects>
        <_>
          7 14 14 18 -1.</_>
        <_>
          7 20 14 6 3.</_></rects>
      <tilted>0</tilted></_>
    <_>
      <rects>
        <_>
          7 33 21 6 -1.</_>
        <_>
          7 36 21 3 2.</_></rects>
      <tilted>0</tilted></_>
    <_>
      <rects>
        <_>
          11 12 18 25 -1.</_>
        <_>
          17 12 6 25 3.</_></rects>
      <tilted>0</tilted></_>
    <_>
      <rects>
        <_>
          11 15 18 18 -1.</_>
        <_>
          17 15 6 18 3.</_></rects>
      <tilted>0</tilted></_>
    <_>
      <rects>
        <_>
          12 17 18 15 -1.</_>
        <_>
          18 17 6 15 3.</_></rects>
      <tilted>0</tilted></_>
    <_>
      <rects>
        <_>
          13 6 9 34 -1.</_>
        <_>
          16 6 3 34 3.</_></rects>
      <tilted>0</tilted></_>
    <_>
      <rects>
        <_>
          14 32 16 8 -1.</_>
        <_>
          22 32 8 8 2.</_></rects>
      <tilted>0</tilted></_>
    <_>
      <rects>
        <_>
          15 1 14 14 -1.</_>
        <_>
          22 1 7 14 2.</_></rects>
      <tilted>0</tilted></_>
    <_>
      <rects>
        <_>
          19 8 10 30 -1.</_>
        <_>
          19 18 10 10 3.</_></rects>
      <tilted>0</tilted></_>
    <_>
      <rects>
        <_>
          23 18 7 4 -1.</_>
        <_>
          23 20 7 2 2.</_></rects>
      <tilted>0</tilted></_>
    <_>
      <rects>
        <_>
          27 5 2 10 -1.</_>
        <_>
          27 5 1 5 2.</_>
        <_>
          28 10 1 5 2.</_></rects>
      <tilted>0</tilted></_>
    <_>
      <rects>
        <_>
          27 30 2 8 -1.</_>
        <_>
          28 30 1 8 2.</_></rects>
      <tilted>0</tilted></_>
    <_>
      <rects>
        <_>
          28 0 2 26 -1.</_>
        <_>
          28 0 1 13 2.</_>
        <_>
          29 13 1 13 2.</_></rects>
      <tilted>0</tilted></_></features></cascade>
</opencv_storage>
